genomestart 51
node 1 1
node 2 1
node 3 1
node 4 2
node 5 2
node 6 2
gene 1 1 4 -0.3736843391695217 1
gene 2 1 5 0.796183975787236 1
gene 3 1 6 -0.4692735649758166 1
gene 4 2 4 -0.8929711795876786 1
gene 5 2 5 0.6946077716848501 1
gene 6 2 6 -0.21561693522553382 1
gene 7 3 4 0.7049215296216206 1
gene 8 3 5 -0.1062806459502782 1
gene 9 3 6 -0.09205661717954994 1
genomeend

genomestart 52
node 1 1
node 2 1
node 3 1
node 4 2
node 5 2
node 6 2
gene 1 1 4 -0.7306797763201316 1
gene 2 1 5 0.03605544640811709 1
gene 3 1 6 0.12601436435137692 1
gene 4 2 4 0.444292337876505 1
gene 5 2 5 -0.31248848541244156 1
gene 6 2 6 0.9297229095070966 1
gene 7 3 4 0.16484842129024024 1
gene 8 3 5 0.27875886055438603 1
gene 9 3 6 0.5386999487044564 1
genomeend

genomestart 53
node 1 1
node 2 1
node 3 1
node 4 2
node 5 2
node 6 2
gene 1 1 4 0.8587637334478907 1
gene 2 1 5 0.34123978123191556 1
gene 3 1 6 -0.17546240792110557 1
gene 4 2 4 -0.2449866969026281 1
gene 5 2 5 0.1156065760593119 1
gene 6 2 6 -0.35002966867849183 1
gene 7 3 4 0.04380091200779568 1
gene 8 3 5 0.6271265778259132 1
gene 9 3 6 0.9132442283825133 1
genomeend

genomestart 54
node 1 1
node 2 1
node 3 1
node 4 2
node 5 2
node 6 2
gene 1 1 4 -0.7795593777611665 1
gene 2 1 5 -0.028873935116061733 1
gene 3 1 6 -0.5566983207182046 1
gene 4 2 4 -0.5556217187792224 1
gene 5 2 5 -0.14173094902102013 1
gene 6 2 6 -0.7397328354812838 1
gene 7 3 4 0.1347427763393223 1
gene 8 3 5 -0.06396185695176415 1
gene 9 3 6 0.5612716360516472 1
genomeend

genomestart 55
node 1 1
node 2 1
node 3 1
node 4 2
node 5 2
node 6 2
gene 1 1 4 -0.7991679787602597 1
gene 2 1 5 0.9234659064849317 1
gene 3 1 6 -0.27281864196544603 1
gene 4 2 4 -0.27810836826124796 1
gene 5 2 5 -0.5776731824736159 1
gene 6 2 6 -0.08589236079979867 1
gene 7 3 4 -0.14782877476756584 1
gene 8 3 5 0.8975146653317715 1
gene 9 3 6 -0.9336658992052296 1
genomeend

genomestart 56
node 1 1
node 2 1
node 3 1
node 4 2
node 5 2
node 6 2
gene 1 1 4 -0.1447129624190947 1
gene 2 1 5 0.34123978123191556 1
gene 3 1 6 -0.17546240792110557 1
gene 4 2 4 -0.2449866969026281 1
gene 5 2 5 0.1156065760593119 1
gene 6 2 6 -0.35002966867849183 1
gene 7 3 4 0.04380091200779568 1
gene 8 3 5 0.6271265778259132 1
gene 9 3 6 0.9132442283825133 1
genomeend

genomestart 57
node 1 1
node 2 1
node 3 1
node 4 2
node 5 2
node 6 2
gene 1 1 4 -0.9714977312844164 1
gene 2 1 5 0.38127067155674144 1
gene 3 1 6 -0.2187499347876738 1
gene 4 2 4 0.6728936610959312 1
gene 5 2 5 0.5680582378580323 1
gene 6 2 6 0.4777492807050788 1
gene 7 3 4 -0.3300064205619423 1
gene 8 3 5 0.04806848041105849 1
gene 9 3 6 0.7888393936065224 1
genomeend

genomestart 58
node 1 1
node 2 1
node 3 1
node 4 2
node 5 2
node 6 2
gene 1 1 4 -0.1447129624190947 1
gene 2 1 5 0.34123978123191556 1
gene 3 1 6 -0.17546240792110557 1
gene 4 2 4 -0.2449866969026281 1
gene 5 2 5 0.1156065760593119 1
gene 6 2 6 -0.35002966867849183 1
gene 7 3 4 0.04380091200779568 1
gene 8 3 5 0.6271265778259132 1
gene 9 3 6 0.9132442283825133 1
genomeend

genomestart 59
node 1 1
node 2 1
node 3 1
node 4 2
node 5 2
node 6 2
gene 1 1 4 -0.03335277042280471 1
gene 2 1 5 -0.29240049030471893 1
gene 3 1 6 -0.0958856070245816 1
gene 4 2 4 -0.8958070720570738 1
gene 5 2 5 -0.9114997413827391 1
gene 6 2 6 0.3150343217798137 1
gene 7 3 4 0.11740673333963836 1
gene 8 3 5 -0.24504159432753192 1
gene 9 3 6 0.8212186912814825 1
genomeend

genomestart 60
node 1 1
node 2 1
node 3 1
node 4 2
node 5 2
node 6 2
gene 1 1 4 0.8587637334478907 1
gene 2 1 5 0.8094508456048618 1
gene 3 1 6 -0.0019546962286829395 1
gene 4 2 4 0.19751465528890488 1
gene 5 2 5 -0.8983202611142636 1
gene 6 2 6 0.7279416034528969 1
gene 7 3 4 0.5188026042109541 1
gene 8 3 5 0.3524089309483307 1
gene 9 3 6 0.362580384978043 1
genomeend

genomestart 61
node 1 1
node 2 1
node 3 1
node 4 2
node 5 2
node 6 2
gene 1 1 4 -0.9160509991501734 1
gene 2 1 5 0.5563210646702058 1
gene 3 1 6 0.23800775389892848 1
gene 4 2 4 -0.5751630356024642 1
gene 5 2 5 0.489277585777976 1
gene 6 2 6 0.5456026247348439 1
gene 7 3 4 -0.8329152620577768 1
gene 8 3 5 0.3217520341672704 1
gene 9 3 6 -0.5455850660538577 1
genomeend

genomestart 62
node 1 1
node 2 1
node 3 1
node 4 2
node 5 2
node 6 2
gene 1 1 4 -0.7375199126082267 1
gene 2 1 5 0.639391740513674 1
gene 3 1 6 -0.09959886076072055 1
gene 4 2 4 0.3126560011856311 1
gene 5 2 5 -0.07148437558458698 1
gene 6 2 6 0.9847310017375225 1
gene 7 3 4 -0.4423808421133635 1
gene 8 3 5 -0.13864928757869566 1
gene 9 3 6 -0.8382455856546441 1
genomeend

genomestart 63
node 1 1
node 2 1
node 3 1
node 4 2
node 5 2
node 6 2
gene 1 1 4 0.9750679739898003 1
gene 2 1 5 0.9925501331091825 1
gene 3 1 6 -0.05538382266974895 1
gene 4 2 4 -0.016899358018526933 1
gene 5 2 5 0.6399326981620083 1
gene 6 2 6 0.7019572054070999 1
gene 7 3 4 -0.10544947377766412 1
gene 8 3 5 -0.5469179272215251 1
gene 9 3 6 -0.9333673246194526 1
gene 10 5 4 -0.2614219225926482 1
genomeend

genomestart 64
node 1 1
node 2 1
node 3 1
node 4 2
node 5 2
node 6 2
gene 1 1 4 -0.7375199126082267 1
gene 2 1 5 -0.4928017373993352 1
gene 3 1 6 -0.09959886076072055 1
gene 4 2 4 0.3126560011856311 1
gene 5 2 5 -0.07148437558458698 1
gene 6 2 6 0.9847310017375225 1
gene 7 3 4 -0.4423808421133635 1
gene 8 3 5 -0.13864928757869566 1
gene 9 3 6 -0.8382455856546441 1
genomeend

genomestart 65
node 1 1
node 2 1
node 3 1
node 4 2
node 5 2
node 6 2
gene 1 1 4 -0.5284341393200295 1
gene 2 1 5 0.2533614776571457 1
gene 3 1 6 -0.8552338316934582 1
gene 4 2 4 -0.9495672331654422 1
gene 5 2 5 0.4338545220684875 1
gene 6 2 6 -0.8059766459680463 1
gene 7 3 4 0.5882361128773104 1
gene 8 3 5 -0.42087466022662123 1
gene 9 3 6 -0.7953964112538662 1
genomeend

genomestart 66
node 1 1
node 2 1
node 3 1
node 4 2
node 5 2
node 6 2
gene 1 1 4 -0.3736843391695217 1
gene 2 1 5 0.5382109995122869 1
gene 3 1 6 0.5035473398832062 1
gene 4 2 4 -0.9495672331654422 1
gene 5 2 5 0.8326450094184513 1
gene 6 2 6 -0.8059766459680463 1
gene 7 3 4 -0.7954750547391395 1
gene 8 3 5 -0.16418822828063495 1
gene 9 3 6 -0.7953964112538662 1
genomeend

genomestart 67
node 1 1
node 2 1
node 3 1
node 4 2
node 5 2
node 6 2
gene 1 1 4 0.19578116719241068 1
gene 2 1 5 0.2533614776571457 1
gene 3 1 6 0.7247512374190825 1
gene 4 2 4 0.9569354801823041 1
gene 5 2 5 0.7417517893563046 1
gene 6 2 6 -0.910433108992225 1
gene 7 3 4 0.5882361128773104 1
gene 8 3 5 -0.42087466022662123 1
gene 9 3 6 0.51992109487828 1
genomeend

genomestart 68
node 1 1
node 2 1
node 3 1
node 4 2
node 5 2
node 6 2
gene 1 1 4 -0.4786801697619122 1
gene 2 1 5 0.8520923532103488 1
gene 3 1 6 0.7724184119054676 1
gene 4 2 4 0.7287413789352789 1
gene 5 2 5 -0.46870561536315525 1
gene 6 2 6 -0.04709380353007675 1
gene 7 3 4 0.20594640972303258 1
gene 8 3 5 0.8664498098829093 1
gene 9 3 6 0.9568759482685456 1
genomeend

genomestart 69
node 1 1
node 2 1
node 3 1
node 4 2
node 5 2
node 6 2
gene 1 1 4 -0.5383191228155288 1
gene 2 1 5 -0.7517711331653701 1
gene 3 1 6 -0.46646489488856524 1
gene 4 2 4 -0.5320636623787864 1
gene 5 2 5 -0.06875173238994348 1
gene 6 2 6 -0.9076103576381852 1
gene 7 3 4 0.12532332120328005 1
gene 8 3 5 -0.11868308589649035 1
gene 9 3 6 0.37174715129759084 1
genomeend

genomestart 70
node 1 1
node 2 1
node 3 1
node 4 2
node 5 2
node 6 2
gene 1 1 4 -0.7375199126082267 1
gene 2 1 5 0.639391740513674 1
gene 3 1 6 0.23800775389892848 1
gene 4 2 4 -0.5751630356024642 1
gene 5 2 5 0.489277585777976 1
gene 6 2 6 0.5456026247348439 1
gene 7 3 4 0.5525578632837381 1
gene 8 3 5 -0.11868308589649035 1
gene 9 3 6 -0.5455850660538577 1
genomeend

genomestart 71
node 1 1
node 2 1
node 3 1
node 4 2
node 5 2
node 6 2
gene 1 1 4 -0.45794993941687656 1
gene 2 1 5 0.5279998379551916 1
gene 3 1 6 -0.4001855432501652 1
gene 4 2 4 0.5249988538084931 1
gene 5 2 5 0.879798965015921 1
gene 6 2 6 0.7966830808772224 1
gene 7 3 4 -0.8259651310743661 1
gene 8 3 5 0.3546457452377728 1
gene 9 3 6 0.4775782133392251 1
genomeend

genomestart 72
node 1 1
node 2 1
node 3 1
node 4 2
node 5 2
node 6 2
gene 1 1 4 0.8587637334478907 1
gene 2 1 5 0.8094508456048618 1
gene 3 1 6 -0.27281864196544603 1
gene 4 2 4 0.191445562865167 1
gene 5 2 5 0.09270258270819776 1
gene 6 2 6 -0.4191158957956723 1
gene 7 3 4 -0.14782877476756584 1
gene 8 3 5 0.27875886055438603 1
gene 9 3 6 0.5386999487044564 1
genomeend

genomestart 73
node 1 1
node 2 1
node 3 1
node 4 2
node 5 2
node 6 2
gene 1 1 4 -0.5284341393200295 1
gene 2 1 5 0.5382109995122869 1
gene 3 1 6 -0.5614466329149501 1
gene 4 2 4 -0.9495672331654422 1
gene 5 2 5 0.4338545220684875 1
gene 6 2 6 -0.8059766459680463 1
gene 7 3 4 -0.7954750547391395 1
gene 8 3 5 -0.16418822828063495 1
gene 9 3 6 -0.7953964112538662 1
genomeend

genomestart 74
node 1 1
node 2 1
node 3 1
node 4 2
node 5 2
node 6 2
gene 1 1 4 -0.6471034717876081 1
gene 2 1 5 0.12298069901357134 1
gene 3 1 6 -0.04935677670201588 1
gene 4 2 4 0.7287413789352789 1
gene 5 2 5 -0.46870561536315525 1
gene 6 2 6 0.4151838625063031 1
gene 7 3 4 0.20594640972303258 1
gene 8 3 5 0.5191321685570685 1
gene 9 3 6 -0.7302823577715457 1
genomeend

genomestart 75
node 1 1
node 2 1
node 3 1
node 4 2
node 5 2
node 6 2
gene 1 1 4 -0.028072586283912293 1
gene 2 1 5 0.8681711159372202 1
gene 3 1 6 -0.6150098035085187 1
gene 4 2 4 0.444292337876505 1
gene 5 2 5 -0.37050865640001096 1
gene 6 2 6 0.6818049816316397 1
gene 7 3 4 0.14656998746683547 1
gene 8 3 5 -0.9953745454410852 1
gene 9 3 6 0.6303825447464464 1
genomeend

genomestart 76
node 1 1
node 2 1
node 3 1
node 4 2
node 5 2
node 6 2
gene 1 1 4 0.8309652256204247 1
gene 2 1 5 0.6634993907267823 1
gene 3 1 6 0.34288205419313655 1
gene 4 2 4 -0.27810836826124796 1
gene 5 2 5 -0.5776731824736159 1
gene 6 2 6 -0.08589236079979867 1
gene 7 3 4 -0.3300064205619423 1
gene 8 3 5 -0.5153315099284087 1
gene 9 3 6 -0.9336658992052296 1
genomeend

genomestart 77
node 1 1
node 2 1
node 3 1
node 4 2
node 5 2
node 6 2
gene 1 1 4 -0.8787976386691707 1
gene 2 1 5 0.8094508456048618 1
gene 3 1 6 -0.27281864196544603 1
gene 4 2 4 -0.008818755833220893 1
gene 5 2 5 0.09270258270819776 1
gene 6 2 6 -0.4191158957956723 1
gene 7 3 4 -0.14782877476756584 1
gene 8 3 5 -0.07693126712723586 1
gene 9 3 6 -0.5157683544859363 1
genomeend

genomestart 78
node 1 1
node 2 1
node 3 1
node 4 2
node 5 2
node 6 2
gene 1 1 4 0.46080543457553835 1
gene 2 1 5 0.4960479601112996 1
gene 3 1 6 -0.4692735649758166 1
gene 4 2 4 -0.8929711795876786 1
gene 5 2 5 0.6946077716848501 1
gene 6 2 6 -0.393354720082561 1
gene 7 3 4 0.7049215296216206 1
gene 8 3 5 0.5775528750630964 1
gene 9 3 6 -0.09205661717954994 1
genomeend

genomestart 79
node 1 1
node 2 1
node 3 1
node 4 2
node 5 2
node 6 2
gene 1 1 4 0.19578116719241068 1
gene 2 1 5 0.2533614776571457 1
gene 3 1 6 -0.950906397274271 1
gene 4 2 4 0.9569354801823041 1
gene 5 2 5 0.7417517893563046 1
gene 6 2 6 -0.910433108992225 1
gene 7 3 4 0.5882361128773104 1
gene 8 3 5 -0.42087466022662123 1
gene 9 3 6 0.51992109487828 1
genomeend

genomestart 80
node 1 1
node 2 1
node 3 1
node 4 2
node 5 2
node 6 2
gene 1 1 4 0.932139193916213 1
gene 2 1 5 0.03605544640811709 1
gene 3 1 6 0.12601436435137692 1
gene 4 2 4 0.444292337876505 1
gene 5 2 5 -0.31248848541244156 1
gene 6 2 6 0.9297229095070966 1
gene 7 3 4 0.16484842129024024 1
gene 8 3 5 -0.7989294621337412 1
gene 9 3 6 -0.7953964112538662 1
genomeend

genomestart 81
node 1 1
node 2 1
node 3 1
node 4 2
node 5 2
node 6 2
gene 1 1 4 0.33978373779686355 1
gene 2 1 5 0.4606870195564813 1
gene 3 1 6 0.7357153494870579 1
gene 4 2 4 0.17489033947304633 1
gene 5 2 5 0.10736091611297782 1
gene 6 2 6 0.6280662821457725 1
gene 7 3 4 0.7001464304658307 1
gene 8 3 5 -0.031823184535674454 1
gene 9 3 6 0.18943453554269607 1
genomeend

genomestart 82
node 1 1
node 2 1
node 3 1
node 4 2
node 5 2
node 6 2
gene 1 1 4 -0.5383191228155288 1
gene 2 1 5 -0.7517711331653701 1
gene 3 1 6 -0.46646489488856524 1
gene 4 2 4 -0.5320636623787864 1
gene 5 2 5 -0.06875173238994348 1
gene 6 2 6 -0.9076103576381852 1
gene 7 3 4 0.12532332120328005 1
gene 8 3 5 0.5574065934006598 1
gene 9 3 6 0.37174715129759084 1
genomeend

genomestart 83
node 1 1
node 2 1
node 3 1
node 4 2
node 5 2
node 6 2
gene 1 1 4 -0.8787976386691707 1
gene 2 1 5 -0.6469406763302772 1
gene 3 1 6 0.8819676226680223 1
gene 4 2 4 0.28732235376070236 1
gene 5 2 5 -0.36549428285817054 1
gene 6 2 6 -0.5989811666474233 1
gene 7 3 4 0.35657838471639236 1
gene 8 3 5 0.7315854485623186 1
gene 9 3 6 -0.5287308971975936 1
genomeend

genomestart 84
node 1 1
node 2 1
node 3 1
node 4 2
node 5 2
node 6 2
gene 1 1 4 0.19578116719241068 1
gene 2 1 5 0.2533614776571457 1
gene 3 1 6 0.7247512374190825 1
gene 4 2 4 -0.6105139510368273 1
gene 5 2 5 -0.5361846481349122 1
gene 6 2 6 -0.910433108992225 1
gene 7 3 4 0.417245278836179 1
gene 8 3 5 -0.42087466022662123 1
gene 9 3 6 0.51992109487828 1
genomeend

genomestart 85
node 1 1
node 2 1
node 3 1
node 4 2
node 5 2
node 6 2
gene 1 1 4 0.932139193916213 1
gene 2 1 5 0.03605544640811709 1
gene 3 1 6 -0.0019546962286829395 1
gene 4 2 4 0.444292337876505 1
gene 5 2 5 -0.31248848541244156 1
gene 6 2 6 0.9297229095070966 1
gene 7 3 4 0.5188026042109541 1
gene 8 3 5 0.3524089309483307 1
gene 9 3 6 0.5150210420965579 1
genomeend

genomestart 86
node 1 1
node 2 1
node 3 1
node 4 2
node 5 2
node 6 2
gene 1 1 4 -0.4421931903097426 1
gene 2 1 5 -0.18853195542161372 1
gene 3 1 6 0.7724184119054676 1
gene 4 2 4 -0.2449866969026281 1
gene 5 2 5 0.014395935328072706 1
gene 6 2 6 -0.04709380353007675 1
gene 7 3 4 0.04380091200779568 1
gene 8 3 5 -0.06396185695176415 1
gene 9 3 6 0.5126124281017295 1
genomeend

genomestart 87
node 1 1
node 2 1
node 3 1
node 4 2
node 5 2
node 6 2
gene 1 1 4 0.7410617442737418 1
gene 2 1 5 0.03605544640811709 1
gene 3 1 6 -0.950906397274271 1
gene 4 2 4 -0.0066989056189620255 1
gene 5 2 5 -0.5475638460689606 1
gene 6 2 6 -0.6053953126826276 1
gene 7 3 4 0.16484842129024024 1
gene 8 3 5 -0.9953745454410852 1
gene 9 3 6 0.5150210420965579 1
genomeend

genomestart 88
node 1 1
node 2 1
node 3 1
node 4 2
node 5 2
node 6 2
gene 1 1 4 -0.7375199126082267 1
gene 2 1 5 -0.4928017373993352 1
gene 3 1 6 -0.09959886076072055 1
gene 4 2 4 0.3126560011856311 1
gene 5 2 5 -0.07148437558458698 1
gene 6 2 6 0.9847310017375225 1
gene 7 3 4 -0.4423808421133635 1
gene 8 3 5 -0.13864928757869566 1
gene 9 3 6 -0.8382455856546441 1
genomeend

genomestart 89
node 1 1
node 2 1
node 3 1
node 4 2
node 5 2
node 6 2
gene 1 1 4 0.551805291492318 1
gene 2 1 5 0.8531653426661848 1
gene 3 1 6 0.9253820940988219 1
gene 4 2 4 -0.9089319788701964 1
gene 5 2 5 -0.49469125070868014 1
gene 6 2 6 -0.7313609685999503 1
gene 7 3 4 -0.9383121477658879 1
gene 8 3 5 0.4206782933475929 1
gene 9 3 6 -0.48924038595331265 1
genomeend

genomestart 90
node 1 1
node 2 1
node 3 1
node 4 2
node 5 2
node 6 2
gene 1 1 4 -0.3885284641533905 1
gene 2 1 5 -0.5845949866671021 1
gene 3 1 6 0.5973507738453495 1
gene 4 2 4 -0.9784295278544956 1
gene 5 2 5 0.8916863488289927 1
gene 6 2 6 0.652016754954884 1
gene 7 3 4 -0.11462305297689501 1
gene 8 3 5 -0.44534102723355107 1
gene 9 3 6 -0.6383176866070809 1
genomeend

genomestart 91
node 1 1
node 2 1
node 3 1
node 4 2
node 5 2
node 6 2
gene 1 1 4 -0.7991679787602597 1
gene 2 1 5 0.9234659064849317 1
gene 3 1 6 -0.4567856476006329 1
gene 4 2 4 0.444292337876505 1
gene 5 2 5 -0.5776731824736159 1
gene 6 2 6 0.9297229095070966 1
gene 7 3 4 0.16484842129024024 1
gene 8 3 5 0.8975146653317715 1
gene 9 3 6 -0.9336658992052296 1
genomeend

genomestart 92
node 1 1
node 2 1
node 3 1
node 4 2
node 5 2
node 6 2
gene 1 1 4 -0.4421931903097426 1
gene 2 1 5 -0.18853195542161372 1
gene 3 1 6 0.7724184119054676 1
gene 4 2 4 0.8457829440492015 1
gene 5 2 5 0.014395935328072706 1
gene 6 2 6 -0.04709380353007675 1
gene 7 3 4 0.5209104966519774 1
gene 8 3 5 -0.06396185695176415 1
gene 9 3 6 0.4377848875046808 1
genomeend

genomestart 93
node 1 1
node 2 1
node 3 1
node 4 2
node 5 2
node 6 2
gene 1 1 4 0.7410617442737418 1
gene 2 1 5 0.4960479601112996 1
gene 3 1 6 -0.950906397274271 1
gene 4 2 4 -0.9089319788701964 1
gene 5 2 5 -0.5475638460689606 1
gene 6 2 6 -0.6053953126826276 1
gene 7 3 4 0.8393319796223482 1
gene 8 3 5 0.5775528750630964 1
gene 9 3 6 -0.8240522429912475 1
genomeend

genomestart 94
node 1 1
node 2 1
node 3 1
node 4 2
node 5 2
node 6 2
gene 1 1 4 0.7410617442737418 1
gene 2 1 5 0.4331234462632779 1
gene 3 1 6 0.23812444979919323 1
gene 4 2 4 0.5547938292675932 1
gene 5 2 5 -0.3074916172767812 1
gene 6 2 6 0.394305738865672 1
gene 7 3 4 0.8393319796223482 1
gene 8 3 5 0.9372571903133124 1
gene 9 3 6 -0.4065430411679588 1
genomeend

genomestart 95
node 1 1
node 2 1
node 3 1
node 4 2
node 5 2
node 6 2
gene 1 1 4 0.8309652256204247 1
gene 2 1 5 0.6634993907267823 1
gene 3 1 6 0.34288205419313655 1
gene 4 2 4 -0.5698020187150783 1
gene 5 2 5 0.2225380055211862 1
gene 6 2 6 -0.7198310329006765 1
gene 7 3 4 0.04380091200779568 1
gene 8 3 5 -0.5153315099284087 1
gene 9 3 6 0.9507567512694806 1
genomeend

genomestart 96
node 1 1
node 2 1
node 3 1
node 4 2
node 5 2
node 6 2
gene 1 1 4 -0.6471034717876081 1
gene 2 1 5 0.9234659064849317 1
gene 3 1 6 -0.04935677670201588 1
gene 4 2 4 -0.27810836826124796 1
gene 5 2 5 -0.5776731824736159 1
gene 6 2 6 -0.08589236079979867 1
gene 7 3 4 0.417245278836179 1
gene 8 3 5 0.8975146653317715 1
gene 9 3 6 -0.9336658992052296 1
genomeend

genomestart 97
node 1 1
node 2 1
node 3 1
node 4 2
node 5 2
node 6 2
gene 1 1 4 -0.3736843391695217 1
gene 2 1 5 -0.5857090738742947 1
gene 3 1 6 0.5035473398832062 1
gene 4 2 4 -0.99916013500459 1
gene 5 2 5 0.8326450094184513 1
gene 6 2 6 0.9620639437126597 1
gene 7 3 4 0.7731217769001565 1
gene 8 3 5 -0.4234554945936706 1
gene 9 3 6 -0.6268074285195729 1
genomeend

genomestart 98
node 1 1
node 2 1
node 3 1
node 4 2
node 5 2
node 6 2
gene 1 1 4 -0.7795593777611665 1
gene 2 1 5 -0.028873935116061733 1
gene 3 1 6 -0.5566983207182046 1
gene 4 2 4 -0.99916013500459 1
gene 5 2 5 -0.14173094902102013 1
gene 6 2 6 -0.7397328354812838 1
gene 7 3 4 0.1347427763393223 1
gene 8 3 5 -0.4234554945936706 1
gene 9 3 6 0.5612716360516472 1
genomeend

genomestart 99
node 1 1
node 2 1
node 3 1
node 4 2
node 5 2
node 6 2
gene 1 1 4 -0.9160509991501734 1
gene 2 1 5 -0.7517711331653701 1
gene 3 1 6 0.23800775389892848 1
gene 4 2 4 -0.5751630356024642 1
gene 5 2 5 0.489277585777976 1
gene 6 2 6 0.5456026247348439 1
gene 7 3 4 0.5525578632837381 1
gene 8 3 5 -0.11868308589649035 1
gene 9 3 6 -0.5455850660538577 1
genomeend

genomestart 100
node 1 1
node 2 1
node 3 1
node 4 2
node 5 2
node 6 2
gene 1 1 4 -0.6471034717876081 1
gene 2 1 5 -0.7517711331653701 1
gene 3 1 6 -0.46646489488856524 1
gene 4 2 4 -0.5320636623787864 1
gene 5 2 5 -0.06875173238994348 1
gene 6 2 6 -0.9076103576381852 1
gene 7 3 4 0.12532332120328005 1
gene 8 3 5 0.5191321685570685 1
gene 9 3 6 0.37174715129759084 1
genomeend

genomestart 101
node 1 1
node 2 1
node 3 1
node 4 2
node 5 2
node 6 2
gene 1 1 4 0.551805291492318 1
gene 2 1 5 0.5563210646702058 1
gene 3 1 6 0.9253820940988219 1
gene 4 2 4 -0.9089319788701964 1
gene 5 2 5 0.489277585777976 1
gene 6 2 6 -0.7313609685999503 1
gene 7 3 4 -0.9383121477658879 1
gene 8 3 5 0.4206782933475929 1
gene 9 3 6 -0.5455850660538577 1
genomeend

genomestart 102
node 1 1
node 2 1
node 3 1
node 4 2
node 5 2
node 6 2
gene 1 1 4 0.5054297722383226 1
gene 2 1 5 -0.8021448892004697 1
gene 3 1 6 -0.44474758568966677 1
gene 4 2 4 0.08761068238076175 1
gene 5 2 5 -0.024389048226676424 1
gene 6 2 6 -0.10391223484070944 1
gene 7 3 4 0.9422007690199133 1
gene 8 3 5 -0.6910997175129947 1
gene 9 3 6 0.32940668941645657 1
genomeend

genomestart 103
node 1 1
node 2 1
node 3 1
node 4 2
node 5 2
node 6 2
gene 1 1 4 -0.45794993941687656 1
gene 2 1 5 0.6634993907267823 1
gene 3 1 6 0.34288205419313655 1
gene 4 2 4 -0.5698020187150783 1
gene 5 2 5 0.2225380055211862 1
gene 6 2 6 -0.7198310329006765 1
gene 7 3 4 0.04380091200779568 1
gene 8 3 5 -0.5153315099284087 1
gene 9 3 6 0.9507567512694806 1
genomeend

genomestart 104
node 1 1
node 2 1
node 3 1
node 4 2
node 5 2
node 6 2
gene 1 1 4 0.8587637334478907 1
gene 2 1 5 0.8094508456048618 1
gene 3 1 6 -0.0019546962286829395 1
gene 4 2 4 0.19751465528890488 1
gene 5 2 5 -0.8983202611142636 1
gene 6 2 6 0.9847310017375225 1
gene 7 3 4 0.5188026042109541 1
gene 8 3 5 0.3524089309483307 1
gene 9 3 6 0.362580384978043 1
genomeend

genomestart 105
node 1 1
node 2 1
node 3 1
node 4 2
node 5 2
node 6 2
gene 1 1 4 -0.1447129624190947 1
gene 2 1 5 0.34123978123191556 1
gene 3 1 6 -0.17546240792110557 1
gene 4 2 4 -0.2449866969026281 1
gene 5 2 5 0.1156065760593119 1
gene 6 2 6 -0.35002966867849183 1
gene 7 3 4 0.04380091200779568 1
gene 8 3 5 0.6271265778259132 1
gene 9 3 6 0.9132442283825133 1
genomeend

genomestart 106
node 1 1
node 2 1
node 3 1
node 4 2
node 5 2
node 6 2
gene 1 1 4 -0.45794993941687656 1
gene 2 1 5 0.5279998379551916 1
gene 3 1 6 -0.4001855432501652 1
gene 4 2 4 0.5249988538084931 1
gene 5 2 5 0.879798965015921 1
gene 6 2 6 -0.35002966867849183 1
gene 7 3 4 -0.8259651310743661 1
gene 8 3 5 0.3546457452377728 1
gene 9 3 6 0.4775782133392251 1
genomeend

genomestart 107
node 1 1
node 2 1
node 3 1
node 4 2
node 5 2
node 6 2
gene 1 1 4 -0.3736843391695217 1
gene 2 1 5 0.796183975787236 1
gene 3 1 6 -0.4692735649758166 1
gene 4 2 4 -0.8929711795876786 1
gene 5 2 5 -0.8983202611142636 1
gene 6 2 6 -0.21561693522553382 1
gene 7 3 4 0.7049215296216206 1
gene 8 3 5 0.3524089309483307 1
gene 9 3 6 -0.09205661717954994 1
genomeend

genomestart 108
node 1 1
node 2 1
node 3 1
node 4 2
node 5 2
node 6 2
gene 1 1 4 0.7410617442737418 1
gene 2 1 5 0.4331234462632779 1
gene 3 1 6 0.23812444979919323 1
gene 4 2 4 0.5547938292675932 1
gene 5 2 5 -0.3074916172767812 1
gene 6 2 6 0.394305738865672 1
gene 7 3 4 0.8393319796223482 1
gene 8 3 5 0.9372571903133124 1
gene 9 3 6 -0.4065430411679588 1
genomeend

genomestart 109
node 1 1
node 2 1
node 3 1
node 4 2
node 5 2
node 6 2
gene 1 1 4 -0.1447129624190947 1
gene 2 1 5 0.34123978123191556 1
gene 3 1 6 -0.17546240792110557 1
gene 4 2 4 -0.2449866969026281 1
gene 5 2 5 0.1156065760593119 1
gene 6 2 6 -0.35002966867849183 1
gene 7 3 4 -0.8329152620577768 1
gene 8 3 5 0.6271265778259132 1
gene 9 3 6 0.9132442283825133 1
genomeend

genomestart 110
node 1 1
node 2 1
node 3 1
node 4 2
node 5 2
node 6 2
gene 1 1 4 -0.3894930352684526 1
gene 2 1 5 0.6352054862656322 1
gene 3 1 6 0.05765526320742387 1
gene 4 2 4 -0.5326445152544693 1
gene 5 2 5 -0.14853573205833204 1
gene 6 2 6 -0.0750464015951231 1
gene 7 3 4 -0.4485379290286462 1
gene 8 3 5 -0.5197057967201288 1
gene 9 3 6 -0.16806336021930224 1
genomeend

genomestart 111
node 1 1
node 2 1
node 3 1
node 4 2
node 5 2
node 6 2
gene 1 1 4 -0.4786801697619122 1
gene 2 1 5 0.8520923532103488 1
gene 3 1 6 -0.4001855432501652 1
gene 4 2 4 0.7287413789352789 1
gene 5 2 5 -0.46870561536315525 1
gene 6 2 6 -0.04709380353007675 1
gene 7 3 4 0.20594640972303258 1
gene 8 3 5 0.8664498098829093 1
gene 9 3 6 0.4775782133392251 1
genomeend

genomestart 112
node 1 1
node 2 1
node 3 1
node 4 2
node 5 2
node 6 2
gene 1 1 4 0.8431175553787539 1
gene 2 1 5 -0.09676576721168628 1
gene 3 1 6 0.4342573617241313 1
gene 4 2 4 -0.7525352723182211 1
gene 5 2 5 0.2225380055211862 1
gene 6 2 6 0.6690780734001648 1
gene 7 3 4 -0.05070114983911955 1
gene 8 3 5 -0.39274630491958484 1
gene 9 3 6 -0.3281874268906809 1
genomeend

genomestart 113
node 1 1
node 2 1
node 3 1
node 4 2
node 5 2
node 6 2
gene 1 1 4 0.8587637334478907 1
gene 2 1 5 0.34123978123191556 1
gene 3 1 6 -0.17546240792110557 1
gene 4 2 4 0.444292337876505 1
gene 5 2 5 0.1156065760593119 1
gene 6 2 6 -0.35002966867849183 1
gene 7 3 4 0.04380091200779568 1
gene 8 3 5 0.6271265778259132 1
gene 9 3 6 0.9132442283825133 1
genomeend

genomestart 114
node 1 1
node 2 1
node 3 1
node 4 2
node 5 2
node 6 2
gene 1 1 4 0.19578116719241068 1
gene 2 1 5 0.2533614776571457 1
gene 3 1 6 -0.950906397274271 1
gene 4 2 4 0.9569354801823041 1
gene 5 2 5 0.7417517893563046 1
gene 6 2 6 -0.910433108992225 1
gene 7 3 4 0.5882361128773104 1
gene 8 3 5 -0.42087466022662123 1
gene 9 3 6 0.51992109487828 1
genomeend

genomestart 115
node 1 1
node 2 1
node 3 1
node 4 2
node 5 2
node 6 2
gene 1 1 4 -0.4786801697619122 1
gene 2 1 5 0.5382109995122869 1
gene 3 1 6 -0.5614466329149501 1
gene 4 2 4 0.7287413789352789 1
gene 5 2 5 -0.46870561536315525 1
gene 6 2 6 -0.8059766459680463 1
gene 7 3 4 0.20594640972303258 1
gene 8 3 5 0.8664498098829093 1
gene 9 3 6 0.9568759482685456 1
genomeend

genomestart 116
node 1 1
node 2 1
node 3 1
node 4 2
node 5 2
node 6 2
gene 1 1 4 -0.8787976386691707 1
gene 2 1 5 0.8094508456048618 1
gene 3 1 6 -0.4567856476006329 1
gene 4 2 4 -0.008818755833220893 1
gene 5 2 5 0.09270258270819776 1
gene 6 2 6 -0.4191158957956723 1
gene 7 3 4 -0.14782877476756584 1
gene 8 3 5 -0.07693126712723586 1
gene 9 3 6 -0.5157683544859363 1
genomeend

genomestart 117
node 1 1
node 2 1
node 3 1
node 4 2
node 5 2
node 6 2
gene 1 1 4 0.7370310982018261 1
gene 2 1 5 -0.04840105418758356 1
gene 3 1 6 -0.40978089406416573 1
gene 4 2 4 -0.14686488510459128 1
gene 5 2 5 -0.7072242666949635 1
gene 6 2 6 0.27707329749955767 1
gene 7 3 4 -0.9984040504601328 1
gene 8 3 5 0.0887911968891697 1
gene 9 3 6 -0.6059395858946105 1
genomeend

genomestart 118
node 1 1
node 2 1
node 3 1
node 4 2
node 5 2
node 6 2
gene 1 1 4 -0.9714977312844164 1
gene 2 1 5 0.38127067155674144 1
gene 3 1 6 -0.27281864196544603 1
gene 4 2 4 -0.27810836826124796 1
gene 5 2 5 -0.5776731824736159 1
gene 6 2 6 -0.08589236079979867 1
gene 7 3 4 -0.14782877476756584 1
gene 8 3 5 0.8975146653317715 1
gene 9 3 6 0.7888393936065224 1
genomeend

genomestart 119
node 1 1
node 2 1
node 3 1
node 4 2
node 5 2
node 6 2
node 7 3
gene 1 1 4 0.33978373779686355 1
gene 2 1 5 0.4606870195564813 1
gene 3 1 6 0.7357153494870579 1
gene 4 2 4 0.17489033947304633 0
gene 5 2 5 0.10736091611297782 1
gene 6 2 6 0.6280662821457725 1
gene 7 3 4 0.7001464304658307 1
gene 8 3 5 -0.031823184535674454 1
gene 9 3 6 0.18943453554269607 1
gene 11 2 7 1.0 1
gene 12 7 4 0.17489033947304633 1
genomeend

genomestart 120
node 1 1
node 2 1
node 3 1
node 4 2
node 5 2
node 6 2
gene 1 1 4 0.33978373779686355 1
gene 2 1 5 0.4606870195564813 1
gene 3 1 6 -0.4692735649758166 1
gene 4 2 4 -0.8929711795876786 1
gene 5 2 5 0.10736091611297782 1
gene 6 2 6 0.6280662821457725 1
gene 7 3 4 0.7049215296216206 1
gene 8 3 5 -0.1062806459502782 1
gene 9 3 6 -0.09205661717954994 1
genomeend

genomestart 121
node 1 1
node 2 1
node 3 1
node 4 2
node 5 2
node 6 2
gene 1 1 4 -0.9160509991501734 1
gene 2 1 5 0.5563210646702058 1
gene 3 1 6 0.23800775389892848 1
gene 4 2 4 -0.5751630356024642 1
gene 5 2 5 0.489277585777976 1
gene 6 2 6 0.5456026247348439 1
gene 7 3 4 -0.8329152620577768 1
gene 8 3 5 0.8975146653317715 1
gene 9 3 6 -0.5455850660538577 1
genomeend

genomestart 122
node 1 1
node 2 1
node 3 1
node 4 2
node 5 2
node 6 2
gene 1 1 4 0.19578116719241068 1
gene 2 1 5 0.2533614776571457 1
gene 3 1 6 -0.950906397274271 1
gene 4 2 4 0.9569354801823041 1
gene 5 2 5 0.7417517893563046 1
gene 6 2 6 -0.910433108992225 1
gene 7 3 4 0.5882361128773104 1
gene 8 3 5 -0.42087466022662123 1
gene 9 3 6 0.51992109487828 1
genomeend

genomestart 123
node 1 1
node 2 1
node 3 1
node 4 2
node 5 2
node 6 2
gene 1 1 4 0.551805291492318 1
gene 2 1 5 0.8531653426661848 1
gene 3 1 6 -0.17546240792110557 1
gene 4 2 4 -0.9089319788701964 1
gene 5 2 5 -0.49469125070868014 1
gene 6 2 6 -0.7313609685999503 1
gene 7 3 4 -0.9383121477658879 1
gene 8 3 5 0.6271265778259132 1
gene 9 3 6 -0.48924038595331265 1
genomeend

genomestart 124
node 1 1
node 2 1
node 3 1
node 4 2
node 5 2
node 6 2
gene 1 1 4 0.8309652256204247 1
gene 2 1 5 0.6634993907267823 1
gene 3 1 6 0.34288205419313655 1
gene 4 2 4 -0.8929711795876786 1
gene 5 2 5 -0.5776731824736159 1
gene 6 2 6 -0.08589236079979867 1
gene 7 3 4 -0.3300064205619423 1
gene 8 3 5 -0.5153315099284087 1
gene 9 3 6 -0.9336658992052296 1
genomeend

genomestart 125
node 1 1
node 2 1
node 3 1
node 4 2
node 5 2
node 6 2
gene 1 1 4 -0.5284341393200295 1
gene 2 1 5 0.5382109995122869 1
gene 3 1 6 -0.5614466329149501 1
gene 4 2 4 -0.9495672331654422 1
gene 5 2 5 0.4338545220684875 1
gene 6 2 6 0.4777492807050788 1
gene 7 3 4 -0.3300064205619423 1
gene 8 3 5 -0.16418822828063495 1
gene 9 3 6 0.7888393936065224 1
genomeend

genomestart 126
node 1 1
node 2 1
node 3 1
node 4 2
node 5 2
node 6 2
gene 1 1 4 -0.45794993941687656 1
gene 2 1 5 0.5382109995122869 1
gene 3 1 6 -0.4001855432501652 1
gene 4 2 4 0.5249988538084931 1
gene 5 2 5 0.8326450094184513 1
gene 6 2 6 0.7966830808772224 1
gene 7 3 4 -0.7954750547391395 1
gene 8 3 5 0.3546457452377728 1
gene 9 3 6 0.4775782133392251 1
gene 13 6 5 -0.9357378001212263 1
genomeend

genomestart 127
node 1 1
node 2 1
node 3 1
node 4 2
node 5 2
node 6 2
gene 1 1 4 0.9750679739898003 1
gene 2 1 5 0.9925501331091825 1
gene 3 1 6 -0.05538382266974895 1
gene 4 2 4 -0.016899358018526933 1
gene 5 2 5 0.6399326981620083 1
gene 6 2 6 0.7019572054070999 1
gene 7 3 4 -0.10544947377766412 1
gene 8 3 5 -0.5469179272215251 1
gene 9 3 6 -0.9333673246194526 1
gene 10 5 4 -0.2614219225926482 1
genomeend

genomestart 128
node 1 1
node 2 1
node 3 1
node 4 2
node 5 2
node 6 2
gene 1 1 4 0.33978373779686355 1
gene 2 1 5 0.4606870195564813 1
gene 3 1 6 -0.2187499347876738 1
gene 4 2 4 0.6728936610959312 1
gene 5 2 5 0.10736091611297782 1
gene 6 2 6 0.6280662821457725 1
gene 7 3 4 0.7001464304658307 1
gene 8 3 5 -0.031823184535674454 1
gene 9 3 6 0.18943453554269607 1
genomeend

genomestart 129
node 1 1
node 2 1
node 3 1
node 4 2
node 5 2
node 6 2
gene 1 1 4 0.8587637334478907 1
gene 2 1 5 0.2533614776571457 1
gene 3 1 6 -0.0019546962286829395 1
gene 4 2 4 0.9569354801823041 1
gene 5 2 5 0.7417517893563046 1
gene 6 2 6 -0.910433108992225 1
gene 7 3 4 0.5882361128773104 1
gene 8 3 5 -0.42087466022662123 1
gene 9 3 6 0.51992109487828 1
genomeend

genomestart 130
node 1 1
node 2 1
node 3 1
node 4 2
node 5 2
node 6 2
gene 1 1 4 -0.7991679787602597 1
gene 2 1 5 0.639391740513674 1
gene 3 1 6 -0.4567856476006329 1
gene 4 2 4 0.444292337876505 1
gene 5 2 5 -0.5776731824736159 1
gene 6 2 6 0.9297229095070966 1
gene 7 3 4 0.16484842129024024 1
gene 8 3 5 0.8975146653317715 1
gene 9 3 6 -0.9336658992052296 1
genomeend

genomestart 131
node 1 1
node 2 1
node 3 1
node 4 2
node 5 2
node 6 2
gene 1 1 4 -0.1447129624190947 1
gene 2 1 5 0.796183975787236 1
gene 3 1 6 -0.17546240792110557 1
gene 4 2 4 -0.2449866969026281 1
gene 5 2 5 0.1156065760593119 1
gene 6 2 6 -0.35002966867849183 1
gene 7 3 4 0.7049215296216206 1
gene 8 3 5 0.6271265778259132 1
gene 9 3 6 0.9132442283825133 1
genomeend

genomestart 132
node 1 1
node 2 1
node 3 1
node 4 2
node 5 2
node 6 2
gene 1 1 4 -0.5284341393200295 1
gene 2 1 5 0.5382109995122869 1
gene 3 1 6 -0.5614466329149501 1
gene 4 2 4 -0.9495672331654422 1
gene 5 2 5 -0.5776731824736159 1
gene 6 2 6 -0.8059766459680463 1
gene 7 3 4 -0.7954750547391395 1
gene 8 3 5 -0.16418822828063495 1
gene 9 3 6 -0.7953964112538662 1
gene 14 5 6 0.3711916703081135 1
genomeend

genomestart 133
node 1 1
node 2 1
node 3 1
node 4 2
node 5 2
node 6 2
gene 1 1 4 0.8587637334478907 1
gene 2 1 5 0.8531653426661848 1
gene 3 1 6 -0.17546240792110557 1
gene 4 2 4 -0.9089319788701964 1
gene 5 2 5 0.1156065760593119 1
gene 6 2 6 -0.35002966867849183 1
gene 7 3 4 0.04380091200779568 1
gene 8 3 5 0.4206782933475929 1
gene 9 3 6 0.9132442283825133 1
genomeend

genomestart 134
node 1 1
node 2 1
node 3 1
node 4 2
node 5 2
node 6 2
gene 1 1 4 -0.9714977312844164 1
gene 2 1 5 0.38127067155674144 1
gene 3 1 6 -0.2187499347876738 1
gene 4 2 4 -0.2449866969026281 1
gene 5 2 5 0.5680582378580323 1
gene 6 2 6 0.4777492807050788 1
gene 7 3 4 0.04380091200779568 1
gene 8 3 5 0.04806848041105849 1
gene 9 3 6 0.7888393936065224 1
gene 15 4 5 -0.08163219468724181 1
genomeend

genomestart 135
node 1 1
node 2 1
node 3 1
node 4 2
node 5 2
node 6 2
gene 1 1 4 0.8587637334478907 1
gene 2 1 5 0.34123978123191556 1
gene 3 1 6 0.23800775389892848 1
gene 4 2 4 -0.2449866969026281 1
gene 5 2 5 0.489277585777976 1
gene 6 2 6 -0.35002966867849183 1
gene 7 3 4 0.04380091200779568 1
gene 8 3 5 0.3217520341672704 1
gene 9 3 6 0.9132442283825133 1
genomeend

genomestart 136
node 1 1
node 2 1
node 3 1
node 4 2
node 5 2
node 6 2
gene 1 1 4 -0.7280015315657835 1
gene 2 1 5 -0.05874477317110671 1
gene 3 1 6 -0.10164727802964335 1
gene 4 2 4 0.8254518675468131 1
gene 5 2 5 -0.911492176652525 1
gene 6 2 6 -0.10205062679163301 1
gene 7 3 4 -0.7767207792057819 1
gene 8 3 5 -0.3346709968296151 1
gene 9 3 6 -0.7050806995443124 1
genomeend

genomestart 137
node 1 1
node 2 1
node 3 1
node 4 2
node 5 2
node 6 2
gene 1 1 4 0.33978373779686355 1
gene 2 1 5 0.4606870195564813 1
gene 3 1 6 0.7357153494870579 1
gene 4 2 4 0.17489033947304633 1
gene 5 2 5 0.10736091611297782 1
gene 6 2 6 0.6280662821457725 1
gene 7 3 4 0.7001464304658307 1
gene 8 3 5 -0.031823184535674454 1
gene 9 3 6 0.18943453554269607 1
genomeend

genomestart 138
node 1 1
node 2 1
node 3 1
node 4 2
node 5 2
node 6 2
gene 1 1 4 0.8373177125056425 1
gene 2 1 5 -0.11194267705612237 1
gene 3 1 6 -0.5479881777669509 1
gene 4 2 4 -0.6209400283346805 1
gene 5 2 5 -0.08290400088945138 1
gene 6 2 6 0.44611741133505656 1
gene 7 3 4 0.7985214848179363 1
gene 8 3 5 0.5495200610323506 1
gene 9 3 6 0.7854666951496656 1
genomeend

genomestart 139
node 1 1
node 2 1
node 3 1
node 4 2
node 5 2
node 6 2
gene 1 1 4 -0.9160509991501734 1
gene 2 1 5 0.5563210646702058 1
gene 3 1 6 0.23800775389892848 1
gene 4 2 4 -0.5751630356024642 1
gene 5 2 5 0.489277585777976 1
gene 6 2 6 0.7279416034528969 1
gene 7 3 4 -0.8329152620577768 1
gene 8 3 5 0.3217520341672704 1
gene 9 3 6 -0.5455850660538577 1
genomeend

genomestart 140
node 1 1
node 2 1
node 3 1
node 4 2
node 5 2
node 6 2
gene 1 1 4 0.19578116719241068 1
gene 2 1 5 0.2533614776571457 1
gene 3 1 6 -0.950906397274271 1
gene 4 2 4 0.9569354801823041 1
gene 5 2 5 0.7417517893563046 1
gene 6 2 6 -0.21561693522553382 1
gene 7 3 4 0.5882361128773104 1
gene 8 3 5 -0.42087466022662123 1
gene 9 3 6 0.51992109487828 1
genomeend

genomestart 141
node 1 1
node 2 1
node 3 1
node 4 2
node 5 2
node 6 2
gene 1 1 4 0.9750679739898003 1
gene 2 1 5 0.2533614776571457 1
gene 3 1 6 -0.05538382266974895 1
gene 4 2 4 0.9569354801823041 1
gene 5 2 5 0.6399326981620083 1
gene 6 2 6 -0.910433108992225 1
gene 7 3 4 0.5882361128773104 1
gene 8 3 5 -0.42087466022662123 1
gene 9 3 6 0.51992109487828 1
genomeend

genomestart 142
node 1 1
node 2 1
node 3 1
node 4 2
node 5 2
node 6 2
gene 1 1 4 -0.154893405750253 1
gene 2 1 5 -0.5162335954112574 1
gene 3 1 6 0.42198706612686254 1
gene 4 2 4 -0.05733096535056437 1
gene 5 2 5 0.5968874558861448 1
gene 6 2 6 -0.8016436543944881 1
gene 7 3 4 0.5525578632837381 1
gene 8 3 5 -0.9739183504333901 1
gene 9 3 6 0.23660450311681713 1
genomeend

genomestart 143
node 1 1
node 2 1
node 3 1
node 4 2
node 5 2
node 6 2
gene 1 1 4 0.8587637334478907 1
gene 2 1 5 0.5279998379551916 1
gene 3 1 6 -0.0019546962286829395 1
gene 4 2 4 0.19751465528890488 1
gene 5 2 5 -0.8983202611142636 1
gene 6 2 6 0.7279416034528969 1
gene 7 3 4 0.5188026042109541 1
gene 8 3 5 0.3546457452377728 1
gene 9 3 6 0.4775782133392251 1
genomeend

genomestart 144
node 1 1
node 2 1
node 3 1
node 4 2
node 5 2
node 6 2
gene 1 1 4 0.7410617442737418 1
gene 2 1 5 0.4331234462632779 1
gene 3 1 6 0.23812444979919323 1
gene 4 2 4 0.5547938292675932 1
gene 5 2 5 -0.3074916172767812 1
gene 6 2 6 0.394305738865672 1
gene 7 3 4 0.8393319796223482 1
gene 8 3 5 0.9372571903133124 1
gene 9 3 6 -0.4065430411679588 1
gene 16 6 6 -0.2682436562163616 1
genomeend

genomestart 145
node 1 1
node 2 1
node 3 1
node 4 2
node 5 2
node 6 2
gene 1 1 4 -0.7450483372516427 1
gene 2 1 5 0.8343802886542729 1
gene 3 1 6 0.9009709614777438 1
gene 4 2 4 -0.8293276226924977 1
gene 5 2 5 -0.4504738316842596 1
gene 6 2 6 0.6480986194443654 1
gene 7 3 4 -0.2831056541540792 1
gene 8 3 5 0.579251347490314 1
gene 9 3 6 0.4568238409567771 1
gene 17 5 5 0.47547401622497787 1
genomeend

genomestart 146
node 1 1
node 2 1
node 3 1
node 4 2
node 5 2
node 6 2
gene 1 1 4 -0.1447129624190947 1
gene 2 1 5 0.34123978123191556 1
gene 3 1 6 -0.17546240792110557 1
gene 4 2 4 -0.2449866969026281 1
gene 5 2 5 0.1156065760593119 1
gene 6 2 6 -0.35002966867849183 1
gene 7 3 4 0.04380091200779568 1
gene 8 3 5 0.6271265778259132 1
gene 9 3 6 -0.4065430411679588 1
genomeend

genomestart 147
node 1 1
node 2 1
node 3 1
node 4 2
node 5 2
node 6 2
gene 1 1 4 0.551805291492318 1
gene 2 1 5 0.8531653426661848 1
gene 3 1 6 -0.09959886076072055 1
gene 4 2 4 0.3126560011856311 1
gene 5 2 5 -0.49469125070868014 1
gene 6 2 6 0.9847310017375225 1
gene 7 3 4 -0.9383121477658879 1
gene 8 3 5 -0.13864928757869566 1
gene 9 3 6 -0.8382455856546441 1
genomeend

genomestart 148
node 1 1
node 2 1
node 3 1
node 4 2
node 5 2
node 6 2
gene 1 1 4 -0.45794993941687656 1
gene 2 1 5 0.2533614776571457 1
gene 3 1 6 -0.4001855432501652 1
gene 4 2 4 0.9569354801823041 1
gene 5 2 5 0.879798965015921 1
gene 6 2 6 -0.910433108992225 1
gene 7 3 4 0.5882361128773104 1
gene 8 3 5 0.3546457452377728 1
gene 9 3 6 0.4775782133392251 1
genomeend

genomestart 149
node 1 1
node 2 1
node 3 1
node 4 2
node 5 2
node 6 2
gene 1 1 4 -0.1447129624190947 1
gene 2 1 5 0.34123978123191556 1
gene 3 1 6 -0.17546240792110557 1
gene 4 2 4 -0.2449866969026281 1
gene 5 2 5 0.1156065760593119 1
gene 6 2 6 -0.35002966867849183 1
gene 7 3 4 0.04380091200779568 1
gene 8 3 5 0.6271265778259132 1
gene 9 3 6 0.9132442283825133 1
genomeend

genomestart 150
node 1 1
node 2 1
node 3 1
node 4 2
node 5 2
node 6 2
gene 1 1 4 0.8587637334478907 1
gene 2 1 5 0.9925501331091825 1
gene 3 1 6 -0.17546240792110557 1
gene 4 2 4 -0.2449866969026281 1
gene 5 2 5 0.6399326981620083 1
gene 6 2 6 0.7019572054070999 1
gene 7 3 4 0.04380091200779568 1
gene 8 3 5 0.6271265778259132 1
gene 9 3 6 0.9132442283825133 1
genomeend

genomestart 151
node 1 1
node 2 1
node 3 1
node 4 2
node 5 2
node 6 2
gene 1 1 4 -0.14410270140570713 1
gene 2 1 5 0.9925501331091825 1
gene 3 1 6 0.6827315666434435 1
gene 4 2 4 0.3097725288793861 1
gene 5 2 5 -0.05258248886245298 1
gene 6 2 6 -0.9000547224013596 1
gene 7 3 4 0.03076056094672386 1
gene 8 3 5 0.9285269339017813 1
gene 9 3 6 -0.519950386043257 1
gene 10 5 4 0.282561376688076 1
genomeend

genomestart 152
node 1 1
node 2 1
node 3 1
node 4 2
node 5 2
node 6 2
gene 1 1 4 0.9750679739898003 1
gene 2 1 5 0.2533614776571457 1
gene 3 1 6 -0.05538382266974895 1
gene 4 2 4 0.9569354801823041 1
gene 5 2 5 0.6399326981620083 1
gene 6 2 6 0.394305738865672 1
gene 7 3 4 0.5882361128773104 1
gene 8 3 5 -0.42087466022662123 1
gene 9 3 6 0.51992109487828 1
genomeend

genomestart 153
node 1 1
node 2 1
node 3 1
node 4 2
node 5 2
node 6 2
gene 1 1 4 0.7410617442737418 1
gene 2 1 5 0.4331234462632779 1
gene 3 1 6 0.23812444979919323 1
gene 4 2 4 0.5547938292675932 1
gene 5 2 5 -0.3074916172767812 1
gene 6 2 6 0.394305738865672 1
gene 7 3 4 0.8393319796223482 1
gene 8 3 5 0.9372571903133124 1
gene 9 3 6 -0.4065430411679588 1
gene 16 6 6 -0.2682436562163616 1
genomeend

genomestart 154
node 1 1
node 2 1
node 3 1
node 4 2
node 5 2
node 6 2
gene 1 1 4 -0.1447129624190947 1
gene 2 1 5 0.9925501331091825 1
gene 3 1 6 -0.05538382266974895 1
gene 4 2 4 -0.016899358018526933 1
gene 5 2 5 0.6399326981620083 1
gene 6 2 6 0.7019572054070999 1
gene 7 3 4 -0.10544947377766412 1
gene 8 3 5 -0.5469179272215251 1
gene 9 3 6 -0.9333673246194526 1
gene 10 5 4 -0.2614219225926482 1
genomeend

genomestart 155
node 1 1
node 2 1
node 3 1
node 4 2
node 5 2
node 6 2
gene 1 1 4 -0.1447129624190947 1
gene 2 1 5 0.796183975787236 1
gene 3 1 6 -0.4692735649758166 1
gene 4 2 4 -0.8929711795876786 1
gene 5 2 5 0.10736091611297782 1
gene 6 2 6 0.6280662821457725 1
gene 7 3 4 0.7049215296216206 1
gene 8 3 5 -0.1062806459502782 1
gene 9 3 6 -0.09205661717954994 1
genomeend

genomestart 156
node 1 1
node 2 1
node 3 1
node 4 2
node 5 2
node 6 2
gene 1 1 4 -0.1447129624190947 1
gene 2 1 5 0.34123978123191556 1
gene 3 1 6 0.7357153494870579 1
gene 4 2 4 -0.2449866969026281 0
gene 5 2 5 0.1156065760593119 1
gene 6 2 6 0.6280662821457725 1
gene 7 3 4 0.04380091200779568 1
gene 8 3 5 0.6271265778259132 1
gene 9 3 6 -0.4065430411679588 1
gene 10 5 4 0.6483823050958457 1
genomeend

genomestart 157
node 1 1
node 2 1
node 3 1
node 4 2
node 5 2
node 6 2
gene 1 1 4 0.551805291492318 1
gene 2 1 5 0.5563210646702058 1
gene 3 1 6 0.9253820940988219 1
gene 4 2 4 -0.9089319788701964 1
gene 5 2 5 0.489277585777976 1
gene 6 2 6 -0.35002966867849183 1
gene 7 3 4 -0.9383121477658879 1
gene 8 3 5 0.4206782933475929 1
gene 9 3 6 -0.5455850660538577 1
genomeend

genomestart 158
node 1 1
node 2 1
node 3 1
node 4 2
node 5 2
node 6 2
gene 1 1 4 0.36076006936251315 1
gene 2 1 5 -0.027429591467631353 1
gene 3 1 6 0.5059753821584777 1
gene 4 2 4 -0.8553283377723391 1
gene 5 2 5 0.1156065760593119 1
gene 6 2 6 0.8980408363638148 1
gene 7 3 4 0.3995015108648091 1
gene 8 3 5 -0.5107284830088303 1
gene 9 3 6 0.10865478324223032 1
genomeend

genomestart 159
node 1 1
node 2 1
node 3 1
node 4 2
node 5 2
node 6 2
node 7 3
gene 1 1 4 0.33978373779686355 1
gene 2 1 5 0.4606870195564813 1
gene 3 1 6 0.7357153494870579 1
gene 4 2 4 0.17489033947304633 1
gene 5 2 5 0.10736091611297782 1
gene 6 2 6 0.6280662821457725 1
gene 7 3 4 0.7001464304658307 1
gene 8 3 5 -0.031823184535674454 1
gene 9 3 6 0.18943453554269607 1
gene 11 2 7 1.0 1
gene 12 7 4 0.17489033947304633 1
genomeend

genomestart 160
node 1 1
node 2 1
node 3 1
node 4 2
node 5 2
node 6 2
node 7 3
gene 1 1 4 0.33978373779686355 1
gene 2 1 5 0.4606870195564813 1
gene 3 1 6 0.7357153494870579 1
gene 4 2 4 0.17489033947304633 1
gene 5 2 5 0.10736091611297782 1
gene 6 2 6 0.6280662821457725 1
gene 7 3 4 0.7001464304658307 1
gene 8 3 5 -0.031823184535674454 1
gene 9 3 6 0.18943453554269607 1
gene 11 2 7 1.0 1
gene 12 7 4 0.17489033947304633 1
genomeend

genomestart 161
node 1 1
node 2 1
node 3 1
node 4 2
node 5 2
node 6 2
gene 1 1 4 0.8587637334478907 1
gene 2 1 5 0.2533614776571457 1
gene 3 1 6 -0.0019546962286829395 1
gene 4 2 4 0.9569354801823041 1
gene 5 2 5 0.7417517893563046 1
gene 6 2 6 0.44611741133505656 1
gene 7 3 4 0.5882361128773104 1
gene 8 3 5 -0.42087466022662123 1
gene 9 3 6 0.51992109487828 1
genomeend

genomestart 162
node 1 1
node 2 1
node 3 1
node 4 2
node 5 2
node 6 2
gene 1 1 4 -0.1447129624190947 1
gene 2 1 5 0.9925501331091825 1
gene 3 1 6 -0.17546240792110557 1
gene 4 2 4 -0.2449866969026281 1
gene 5 2 5 0.1156065760593119 1
gene 6 2 6 -0.35002966867849183 1
gene 7 3 4 0.04380091200779568 1
gene 8 3 5 0.6271265778259132 1
gene 9 3 6 -0.4065430411679588 1
genomeend

genomestart 163
node 1 1
node 2 1
node 3 1
node 4 2
node 5 2
node 6 2
gene 1 1 4 0.9750679739898003 1
gene 2 1 5 0.6634993907267823 1
gene 3 1 6 -0.05538382266974895 1
gene 4 2 4 0.9569354801823041 1
gene 5 2 5 0.6399326981620083 1
gene 6 2 6 -0.910433108992225 1
gene 7 3 4 0.04380091200779568 1
gene 8 3 5 -0.42087466022662123 1
gene 9 3 6 0.51992109487828 1
genomeend

genomestart 164
node 1 1
node 2 1
node 3 1
node 4 2
node 5 2
node 6 2
gene 1 1 4 0.8587637334478907 1
gene 2 1 5 0.34123978123191556 1
gene 3 1 6 -0.17546240792110557 1
gene 4 2 4 -0.9089319788701964 1
gene 5 2 5 0.1156065760593119 1
gene 6 2 6 -0.35002966867849183 1
gene 7 3 4 0.04380091200779568 1
gene 8 3 5 0.6271265778259132 1
gene 9 3 6 -0.4065430411679588 1
genomeend

genomestart 165
node 1 1
node 2 1
node 3 1
node 4 2
node 5 2
node 6 2
gene 1 1 4 -0.1447129624190947 1
gene 2 1 5 0.796183975787236 1
gene 3 1 6 0.7357153494870579 1
gene 4 2 4 -0.2449866969026281 1
gene 5 2 5 0.1156065760593119 1
gene 6 2 6 -0.35002966867849183 1
gene 7 3 4 0.7049215296216206 1
gene 8 3 5 0.6271265778259132 1
gene 9 3 6 0.9132442283825133 1
genomeend

genomestart 166
node 1 1
node 2 1
node 3 1
node 4 2
node 5 2
node 6 2
gene 1 1 4 0.8587637334478907 1
gene 2 1 5 0.34123978123191556 1
gene 3 1 6 -0.17546240792110557 1
gene 4 2 4 0.444292337876505 1
gene 5 2 5 0.1156065760593119 1
gene 6 2 6 0.6280662821457725 1
gene 7 3 4 0.04380091200779568 1
gene 8 3 5 -0.031823184535674454 1
gene 9 3 6 0.9132442283825133 1
genomeend

genomestart 167
node 1 1
node 2 1
node 3 1
node 4 2
node 5 2
node 6 2
gene 1 1 4 -0.45794993941687656 1
gene 2 1 5 0.2533614776571457 1
gene 3 1 6 -0.0019546962286829395 1
gene 4 2 4 0.9569354801823041 1
gene 5 2 5 0.7417517893563046 1
gene 6 2 6 -0.910433108992225 1
gene 7 3 4 0.5882361128773104 1
gene 8 3 5 -0.5153315099284087 1
gene 9 3 6 0.51992109487828 1
genomeend

genomestart 168
node 1 1
node 2 1
node 3 1
node 4 2
node 5 2
node 6 2
gene 1 1 4 0.33978373779686355 1
gene 2 1 5 0.4606870195564813 1
gene 3 1 6 -0.2187499347876738 1
gene 4 2 4 0.6728936610959312 1
gene 5 2 5 0.10736091611297782 1
gene 6 2 6 0.6280662821457725 1
gene 7 3 4 0.7001464304658307 1
gene 8 3 5 -0.031823184535674454 1
gene 9 3 6 0.18943453554269607 1
genomeend

genomestart 169
node 1 1
node 2 1
node 3 1
node 4 2
node 5 2
node 6 2
gene 1 1 4 0.9750679739898003 1
gene 2 1 5 0.2533614776571457 1
gene 3 1 6 -0.05538382266974895 1
gene 4 2 4 0.9569354801823041 1
gene 5 2 5 0.6399326981620083 1
gene 6 2 6 -0.910433108992225 1
gene 7 3 4 0.5882361128773104 1
gene 8 3 5 0.8664498098829093 1
gene 9 3 6 0.51992109487828 1
genomeend

genomestart 170
node 1 1
node 2 1
node 3 1
node 4 2
node 5 2
node 6 2
gene 1 1 4 -0.1447129624190947 1
gene 2 1 5 0.9925501331091825 1
gene 3 1 6 -0.17546240792110557 1
gene 4 2 4 -0.2449866969026281 1
gene 5 2 5 0.1156065760593119 1
gene 6 2 6 -0.35002966867849183 1
gene 7 3 4 0.04380091200779568 1
gene 8 3 5 0.6271265778259132 1
gene 9 3 6 0.9132442283825133 1
genomeend

genomestart 171
node 1 1
node 2 1
node 3 1
node 4 2
node 5 2
node 6 2
gene 1 1 4 -0.34728121349344676 1
gene 2 1 5 -0.9066527974859324 1
gene 3 1 6 -0.5496466024882258 1
gene 4 2 4 0.3293396645581549 1
gene 5 2 5 0.870495193246909 1
gene 6 2 6 0.624686021338648 1
gene 7 3 4 -0.21561245452241273 1
gene 8 3 5 -0.804167282483874 1
gene 9 3 6 -0.9030201883064547 1
gene 10 5 4 -0.9117625477946626 1
genomeend

genomestart 172
node 1 1
node 2 1
node 3 1
node 4 2
node 5 2
node 6 2
gene 1 1 4 -0.45794993941687656 1
gene 2 1 5 0.6634993907267823 1
gene 3 1 6 0.34288205419313655 1
gene 4 2 4 -0.5698020187150783 1
gene 5 2 5 0.2225380055211862 1
gene 6 2 6 -0.7313609685999503 1
gene 7 3 4 0.04380091200779568 1
gene 8 3 5 -0.5153315099284087 1
gene 9 3 6 0.9507567512694806 1
genomeend

genomestart 173
node 1 1
node 2 1
node 3 1
node 4 2
node 5 2
node 6 2
gene 1 1 4 0.8373177125056425 1
gene 2 1 5 -0.11194267705612237 1
gene 3 1 6 -0.5479881777669509 1
gene 4 2 4 -0.6209400283346805 1
gene 5 2 5 -0.08290400088945138 1
gene 6 2 6 0.44611741133505656 1
gene 7 3 4 0.7985214848179363 1
gene 8 3 5 0.5495200610323506 1
gene 9 3 6 0.7854666951496656 1
genomeend

genomestart 174
node 1 1
node 2 1
node 3 1
node 4 2
node 5 2
node 6 2
gene 1 1 4 -0.9160509991501734 1
gene 2 1 5 0.5563210646702058 1
gene 3 1 6 0.23800775389892848 1
gene 4 2 4 -0.5751630356024642 1
gene 5 2 5 0.5680582378580323 1
gene 6 2 6 0.4777492807050788 1
gene 7 3 4 -0.8329152620577768 1
gene 8 3 5 0.8975146653317715 1
gene 9 3 6 -0.5455850660538577 1
genomeend

genomestart 175
node 1 1
node 2 1
node 3 1
node 4 2
node 5 2
node 6 2
gene 1 1 4 0.8587637334478907 1
gene 2 1 5 0.2533614776571457 1
gene 3 1 6 -0.0019546962286829395 1
gene 4 2 4 0.5249988538084931 1
gene 5 2 5 0.879798965015921 1
gene 6 2 6 -0.35002966867849183 1
gene 7 3 4 0.5882361128773104 1
gene 8 3 5 -0.42087466022662123 1
gene 9 3 6 0.51992109487828 1
genomeend

genomestart 176
node 1 1
node 2 1
node 3 1
node 4 2
node 5 2
node 6 2
gene 1 1 4 0.9750679739898003 1
gene 2 1 5 0.9925501331091825 1
gene 3 1 6 -0.05538382266974895 1
gene 4 2 4 -0.016899358018526933 1
gene 5 2 5 0.6399326981620083 1
gene 6 2 6 0.7019572054070999 1
gene 7 3 4 -0.10544947377766412 1
gene 8 3 5 -0.5469179272215251 1
gene 9 3 6 -0.9333673246194526 1
gene 10 5 4 -0.2614219225926482 1
genomeend

genomestart 177
node 1 1
node 2 1
node 3 1
node 4 2
node 5 2
node 6 2
gene 1 1 4 -0.9714977312844164 1
gene 2 1 5 0.34123978123191556 1
gene 3 1 6 -0.17546240792110557 1
gene 4 2 4 -0.2449866969026281 1
gene 5 2 5 0.1156065760593119 1
gene 6 2 6 -0.35002966867849183 1
gene 7 3 4 0.04380091200779568 1
gene 8 3 5 0.6271265778259132 1
gene 9 3 6 -0.4065430411679588 1
genomeend

genomestart 178
node 1 1
node 2 1
node 3 1
node 4 2
node 5 2
node 6 2
gene 1 1 4 0.943395355992453 1
gene 2 1 5 -0.9864550194930244 1
gene 3 1 6 -0.8093122249976812 1
gene 4 2 4 -0.2647084999909829 1
gene 5 2 5 0.5797607064755669 1
gene 6 2 6 -0.9004442262309479 1
gene 7 3 4 -0.18710311605708152 1
gene 8 3 5 -0.5966342232468789 1
gene 9 3 6 0.8089175205903963 1
genomeend

genomestart 179
node 1 1
node 2 1
node 3 1
node 4 2
node 5 2
node 6 2
gene 1 1 4 0.8587637334478907 1
gene 2 1 5 0.9925501331091825 1
gene 3 1 6 -0.17546240792110557 1
gene 4 2 4 0.17489033947304633 1
gene 5 2 5 0.6399326981620083 1
gene 6 2 6 0.7019572054070999 1
gene 7 3 4 0.7001464304658307 1
gene 8 3 5 0.6271265778259132 1
gene 9 3 6 0.18943453554269607 1
genomeend

genomestart 180
node 1 1
node 2 1
node 3 1
node 4 2
node 5 2
node 6 2
gene 1 1 4 -0.6904514452976533 1
gene 2 1 5 0.762102611754769 1
gene 3 1 6 0.44889159107136034 1
gene 4 2 4 -0.6209400283346805 1
gene 5 2 5 -0.3134740513448284 1
gene 6 2 6 -0.6686235768743457 1
gene 7 3 4 -0.3129350192313215 1
gene 8 3 5 -0.8033632638452736 1
gene 9 3 6 -0.313107381184339 1
genomeend

genomestart 181
node 1 1
node 2 1
node 3 1
node 4 2
node 5 2
node 6 2
gene 1 1 4 0.8373177125056425 1
gene 2 1 5 0.38127067155674144 1
gene 3 1 6 -0.5479881777669509 1
gene 4 2 4 -0.6209400283346805 1
gene 5 2 5 -0.08290400088945138 1
gene 6 2 6 0.4777492807050788 1
gene 7 3 4 0.7985214848179363 1
gene 8 3 5 0.5495200610323506 1
gene 9 3 6 0.7854666951496656 1
genomeend

genomestart 182
node 1 1
node 2 1
node 3 1
node 4 2
node 5 2
node 6 2
gene 1 1 4 -0.1447129624190947 1
gene 2 1 5 0.8094508456048618 1
gene 3 1 6 -0.17546240792110557 1
gene 4 2 4 -0.2449866969026281 1
gene 5 2 5 0.09270258270819776 1
gene 6 2 6 -0.4191158957956723 1
gene 7 3 4 -0.14782877476756584 1
gene 8 3 5 -0.07693126712723586 1
gene 9 3 6 -0.5157683544859363 1
genomeend

genomestart 183
node 1 1
node 2 1
node 3 1
node 4 2
node 5 2
node 6 2
node 7 3
gene 1 1 4 0.33978373779686355 1
gene 2 1 5 0.4606870195564813 1
gene 3 1 6 0.7357153494870579 1
gene 4 2 4 0.17489033947304633 0
gene 5 2 5 0.10736091611297782 1
gene 6 2 6 0.394305738865672 1
gene 7 3 4 0.7001464304658307 1
gene 8 3 5 -0.031823184535674454 1
gene 9 3 6 -0.4065430411679588 1
gene 11 2 7 1.0 1
gene 12 7 4 0.17489033947304633 1
genomeend

genomestart 184
node 1 1
node 2 1
node 3 1
node 4 2
node 5 2
node 6 2
gene 1 1 4 -0.4786801697619122 1
gene 2 1 5 0.8520923532103488 1
gene 3 1 6 -0.4001855432501652 1
gene 4 2 4 0.7287413789352789 1
gene 5 2 5 -0.3074916172767812 1
gene 6 2 6 -0.04709380353007675 1
gene 7 3 4 0.20594640972303258 1
gene 8 3 5 0.9372571903133124 1
gene 9 3 6 0.4775782133392251 1
genomeend

genomestart 185
node 1 1
node 2 1
node 3 1
node 4 2
node 5 2
node 6 2
gene 1 1 4 0.7305975661255004 1
gene 2 1 5 -0.2087608936810762 1
gene 3 1 6 -0.8069805602836299 1
gene 4 2 4 0.4787202430969367 1
gene 5 2 5 -0.9467640217736372 1
gene 6 2 6 0.8975511723250655 1
gene 7 3 4 -0.09339659781324816 1
gene 8 3 5 0.45026613788488556 1
gene 9 3 6 0.0012652043610424935 1
genomeend

genomestart 186
node 1 1
node 2 1
node 3 1
node 4 2
node 5 2
node 6 2
gene 1 1 4 0.9750679739898003 1
gene 2 1 5 0.9925501331091825 1
gene 3 1 6 -0.05538382266974895 1
gene 4 2 4 -0.2449866969026281 1
gene 5 2 5 0.6399326981620083 1
gene 6 2 6 0.7019572054070999 1
gene 7 3 4 -0.10544947377766412 1
gene 8 3 5 -0.5469179272215251 1
gene 9 3 6 -0.9333673246194526 1
gene 10 5 4 -0.2614219225926482 1
genomeend

genomestart 187
node 1 1
node 2 1
node 3 1
node 4 2
node 5 2
node 6 2
gene 1 1 4 0.7410617442737418 1
gene 2 1 5 0.4331234462632779 1
gene 3 1 6 0.23812444979919323 1
gene 4 2 4 0.5547938292675932 1
gene 5 2 5 -0.3074916172767812 1
gene 6 2 6 0.394305738865672 1
gene 7 3 4 0.8393319796223482 1
gene 8 3 5 -0.031823184535674454 1
gene 9 3 6 -0.4065430411679588 1
gene 16 6 6 -0.2682436562163616 1
genomeend

genomestart 188
node 1 1
node 2 1
node 3 1
node 4 2
node 5 2
node 6 2
gene 1 1 4 0.8587637334478907 1
gene 2 1 5 0.34123978123191556 1
gene 3 1 6 -0.17546240792110557 1
gene 4 2 4 0.444292337876505 1
gene 5 2 5 0.1156065760593119 1
gene 6 2 6 -0.35002966867849183 1
gene 7 3 4 0.04380091200779568 1
gene 8 3 5 0.6271265778259132 1
gene 9 3 6 0.9132442283825133 1
genomeend

genomestart 189
node 1 1
node 2 1
node 3 1
node 4 2
node 5 2
node 6 2
gene 1 1 4 -0.9160509991501734 1
gene 2 1 5 0.5563210646702058 1
gene 3 1 6 0.23800775389892848 1
gene 4 2 4 -0.5751630356024642 1
gene 5 2 5 0.489277585777976 1
gene 6 2 6 0.5456026247348439 1
gene 7 3 4 -0.8329152620577768 1
gene 8 3 5 0.8975146653317715 1
gene 9 3 6 -0.5455850660538577 1
genomeend

genomestart 190
node 1 1
node 2 1
node 3 1
node 4 2
node 5 2
node 6 2
gene 1 1 4 0.44346219409140164 1
gene 2 1 5 0.17411930863589975 1
gene 3 1 6 -0.7894371968882746 1
gene 4 2 4 0.7329070316501225 1
gene 5 2 5 0.6775644162458119 1
gene 6 2 6 -0.698135592780865 1
gene 7 3 4 0.9490055348586418 1
gene 8 3 5 -0.9107168167686217 1
gene 9 3 6 0.25602432595317626 1
genomeend

genomestart 191
node 1 1
node 2 1
node 3 1
node 4 2
node 5 2
node 6 2
gene 1 1 4 -0.9586200782235715 1
gene 2 1 5 0.38471167746709733 1
gene 3 1 6 0.5927725737211567 1
gene 4 2 4 0.018769871652986603 1
gene 5 2 5 0.9160297529452458 1
gene 6 2 6 -0.4190472366455037 1
gene 7 3 4 0.8926176287235232 1
gene 8 3 5 -0.2604672526568599 1
gene 9 3 6 -0.6449975981178371 1
genomeend

genomestart 192
node 1 1
node 2 1
node 3 1
node 4 2
node 5 2
node 6 2
gene 1 1 4 -0.4786801697619122 1
gene 2 1 5 0.38127067155674144 1
gene 3 1 6 -0.2187499347876738 1
gene 4 2 4 -0.2449866969026281 1
gene 5 2 5 0.5680582378580323 1
gene 6 2 6 0.4777492807050788 1
gene 7 3 4 0.04380091200779568 1
gene 8 3 5 0.04806848041105849 1
gene 9 3 6 0.4775782133392251 1
gene 15 4 5 -0.08163219468724181 1
gene 18 4 6 0.6830389008792584 1
genomeend

genomestart 193
node 1 1
node 2 1
node 3 1
node 4 2
node 5 2
node 6 2
gene 1 1 4 0.9750679739898003 1
gene 2 1 5 0.4606870195564813 1
gene 3 1 6 -0.05538382266974895 1
gene 4 2 4 0.9569354801823041 1
gene 5 2 5 0.6399326981620083 1
gene 6 2 6 -0.910433108992225 1
gene 7 3 4 0.7001464304658307 1
gene 8 3 5 -0.42087466022662123 1
gene 9 3 6 0.18943453554269607 1
genomeend

genomestart 194
node 1 1
node 2 1
node 3 1
node 4 2
node 5 2
node 6 2
gene 1 1 4 -0.717937569856392 1
gene 2 1 5 -0.4165399554354092 1
gene 3 1 6 0.19596877659178102 1
gene 4 2 4 0.7706954003195523 1
gene 5 2 5 -0.23274618679498327 1
gene 6 2 6 -0.910433108992225 1
gene 7 3 4 0.7001464304658307 1
gene 8 3 5 -0.031823184535674454 1
gene 9 3 6 -0.6549601166897611 1
genomeend

genomestart 195
node 1 1
node 2 1
node 3 1
node 4 2
node 5 2
node 6 2
gene 1 1 4 -0.2585543643345972 1
gene 2 1 5 -0.8376630477563811 1
gene 3 1 6 -0.048582317105318684 1
gene 4 2 4 -0.6329117248440305 1
gene 5 2 5 0.12047242613223719 1
gene 6 2 6 -0.2297470121827213 1
gene 7 3 4 -0.08509482751389208 1
gene 8 3 5 -0.4754562504268235 1
gene 9 3 6 -0.890084084827194 1
genomeend

genomestart 196
node 1 1
node 2 1
node 3 1
node 4 2
node 5 2
node 6 2
gene 1 1 4 0.33978373779686355 1
gene 2 1 5 0.9925501331091825 1
gene 3 1 6 -0.4692735649758166 1
gene 4 2 4 -0.2449866969026281 1
gene 5 2 5 0.10736091611297782 1
gene 6 2 6 0.6280662821457725 1
gene 7 3 4 0.7049215296216206 1
gene 8 3 5 -0.1062806459502782 1
gene 9 3 6 0.9132442283825133 1
genomeend

genomestart 197
node 1 1
node 2 1
node 3 1
node 4 2
node 5 2
node 6 2
gene 1 1 4 -0.45794993941687656 1
gene 2 1 5 0.6634993907267823 1
gene 3 1 6 0.34288205419313655 1
gene 4 2 4 -0.5698020187150783 1
gene 5 2 5 0.2225380055211862 1
gene 6 2 6 -0.35002966867849183 1
gene 7 3 4 0.04380091200779568 1
gene 8 3 5 -0.5153315099284087 1
gene 9 3 6 0.9507567512694806 1
genomeend

genomestart 198
node 1 1
node 2 1
node 3 1
node 4 2
node 5 2
node 6 2
gene 1 1 4 0.33978373779686355 1
gene 2 1 5 0.8531653426661848 1
gene 3 1 6 -0.2187499347876738 1
gene 4 2 4 0.6728936610959312 1
gene 5 2 5 0.1156065760593119 1
gene 6 2 6 0.6280662821457725 1
gene 7 3 4 0.7001464304658307 1
gene 8 3 5 -0.031823184535674454 1
gene 9 3 6 0.18943453554269607 1
genomeend

genomestart 199
node 1 1
node 2 1
node 3 1
node 4 2
node 5 2
node 6 2
gene 1 1 4 -0.1447129624190947 1
gene 2 1 5 0.34123978123191556 1
gene 3 1 6 0.7357153494870579 1
gene 4 2 4 0.17489033947304633 1
gene 5 2 5 0.10736091611297782 1
gene 6 2 6 -0.35002966867849183 1
gene 7 3 4 0.04380091200779568 1
gene 8 3 5 0.6271265778259132 1
gene 9 3 6 -0.4065430411679588 1
genomeend

genomestart 200
node 1 1
node 2 1
node 3 1
node 4 2
node 5 2
node 6 2
gene 1 1 4 0.8587637334478907 1
gene 2 1 5 0.38127067155674144 1
gene 3 1 6 -0.17546240792110557 1
gene 4 2 4 -0.2449866969026281 1
gene 5 2 5 0.6399326981620083 1
gene 6 2 6 0.7019572054070999 1
gene 7 3 4 0.04380091200779568 1
gene 8 3 5 0.04806848041105849 1
gene 9 3 6 0.9132442283825133 1
genomeend

genomestart 201
node 1 1
node 2 1
node 3 1
node 4 2
node 5 2
node 6 2
gene 1 1 4 -0.3950031022469521 1
gene 2 1 5 -0.5820778610818382 1
gene 3 1 6 0.9119308794519445 1
gene 4 2 4 -0.10995325325153305 1
gene 5 2 5 -0.738278256184792 1
gene 6 2 6 0.6280662821457725 1
gene 7 3 4 0.5911054347486315 1
gene 8 3 5 -0.8558397998161018 1
gene 9 3 6 -0.15558120514271334 1
gene 10 5 4 -0.39441837214339026 1
genomeend

genomestart 202
node 1 1
node 2 1
node 3 1
node 4 2
node 5 2
node 6 2
gene 1 1 4 0.9750679739898003 1
gene 2 1 5 0.9925501331091825 1
gene 3 1 6 0.7357153494870579 1
gene 4 2 4 0.17489033947304633 0
gene 5 2 5 0.10736091611297782 1
gene 6 2 6 0.7019572054070999 1
gene 7 3 4 -0.10544947377766412 1
gene 8 3 5 -0.5469179272215251 1
gene 9 3 6 -0.9333673246194526 1
gene 10 5 4 -0.2614219225926482 1
genomeend

genomestart 203
node 1 1
node 2 1
node 3 1
node 4 2
node 5 2
node 6 2
gene 1 1 4 0.5134116689475872 1
gene 2 1 5 -0.08472757714323653 1
gene 3 1 6 0.7178704291247264 1
gene 4 2 4 0.6728936610959312 1
gene 5 2 5 0.9941058743027723 1
gene 6 2 6 0.15615039144154308 1
gene 7 3 4 0.7001464304658307 1
gene 8 3 5 -0.19592647543147435 1
gene 9 3 6 0.18943453554269607 1
genomeend

genomestart 204
node 1 1
node 2 1
node 3 1
node 4 2
node 5 2
node 6 2
gene 1 1 4 0.551805291492318 1
gene 2 1 5 0.5563210646702058 1
gene 3 1 6 -0.4692735649758166 1
gene 4 2 4 -0.8929711795876786 1
gene 5 2 5 0.10736091611297782 1
gene 6 2 6 -0.35002966867849183 1
gene 7 3 4 -0.9383121477658879 1
gene 8 3 5 0.4206782933475929 1
gene 9 3 6 -0.5455850660538577 1
genomeend

genomestart 205
node 1 1
node 2 1
node 3 1
node 4 2
node 5 2
node 6 2
gene 1 1 4 0.7306802250600908 1
gene 2 1 5 0.2533614776571457 1
gene 3 1 6 -0.712513862785552 1
gene 4 2 4 0.4174270760161364 1
gene 5 2 5 -0.6579698175111635 1
gene 6 2 6 0.424331095559233 1
gene 7 3 4 0.40783481348954354 1
gene 8 3 5 0.41323880106669475 1
gene 9 3 6 -0.4960284888594587 1
genomeend

genomestart 206
node 1 1
node 2 1
node 3 1
node 4 2
node 5 2
node 6 2
gene 1 1 4 -0.8576560632385126 1
gene 2 1 5 0.9213347309092834 1
gene 3 1 6 0.26314489043588085 1
gene 4 2 4 -0.484643352266942 1
gene 5 2 5 0.4498304663196756 1
gene 6 2 6 0.8230420667794343 1
gene 7 3 4 0.40103546272953505 1
gene 8 3 5 -0.031823184535674454 1
gene 9 3 6 0.7212448231618077 1
genomeend

genomestart 207
node 1 1
node 2 1
node 3 1
node 4 2
node 5 2
node 6 2
gene 1 1 4 -0.1447129624190947 1
gene 2 1 5 0.9925501331091825 1
gene 3 1 6 -0.4692735649758166 1
gene 4 2 4 -0.016899358018526933 1
gene 5 2 5 0.10736091611297782 1
gene 6 2 6 0.6280662821457725 1
gene 7 3 4 -0.10544947377766412 1
gene 8 3 5 -0.5469179272215251 1
gene 9 3 6 0.9132442283825133 1
genomeend

genomestart 208
node 1 1
node 2 1
node 3 1
node 4 2
node 5 2
node 6 2
gene 1 1 4 0.8587637334478907 1
gene 2 1 5 0.38127067155674144 1
gene 3 1 6 -0.17546240792110557 1
gene 4 2 4 -0.2449866969026281 1
gene 5 2 5 0.6399326981620083 1
gene 6 2 6 0.7019572054070999 1
gene 7 3 4 0.04380091200779568 1
gene 8 3 5 0.04806848041105849 1
gene 9 3 6 0.9132442283825133 1
genomeend

genomestart 209
node 1 1
node 2 1
node 3 1
node 4 2
node 5 2
node 6 2
node 7 3
gene 1 1 4 0.33978373779686355 1
gene 2 1 5 0.4606870195564813 1
gene 3 1 6 0.7357153494870579 1
gene 4 2 4 0.17489033947304633 1
gene 5 2 5 0.10736091611297782 1
gene 6 2 6 0.6280662821457725 1
gene 7 3 4 0.7001464304658307 1
gene 8 3 5 -0.031823184535674454 1
gene 9 3 6 0.18943453554269607 1
gene 11 2 7 1.0 1
gene 12 7 4 0.17489033947304633 1
genomeend

genomestart 210
node 1 1
node 2 1
node 3 1
node 4 2
node 5 2
node 6 2
gene 1 1 4 -0.1447129624190947 1
gene 2 1 5 0.9925501331091825 1
gene 3 1 6 -0.17546240792110557 1
gene 4 2 4 0.17489033947304633 1
gene 5 2 5 0.10736091611297782 1
gene 6 2 6 -0.35002966867849183 1
gene 7 3 4 0.04380091200779568 1
gene 8 3 5 0.6271265778259132 1
gene 9 3 6 -0.4065430411679588 1
genomeend

genomestart 211
node 1 1
node 2 1
node 3 1
node 4 2
node 5 2
node 6 2
gene 1 1 4 0.8587637334478907 1
gene 2 1 5 0.2533614776571457 1
gene 3 1 6 -0.0019546962286829395 1
gene 4 2 4 0.9569354801823041 1
gene 5 2 5 0.7417517893563046 1
gene 6 2 6 0.44611741133505656 1
gene 7 3 4 0.04380091200779568 1
gene 8 3 5 -0.42087466022662123 1
gene 9 3 6 -0.4065430411679588 1
genomeend

genomestart 212
node 1 1
node 2 1
node 3 1
node 4 2
node 5 2
node 6 2
gene 1 1 4 -0.22229941374437545 1
gene 2 1 5 0.13173197413158266 1
gene 3 1 6 -0.10448459549360534 1
gene 4 2 4 0.768999977020357 1
gene 5 2 5 -0.335285556776842 1
gene 6 2 6 0.32260304885895896 1
gene 7 3 4 0.2706137008115348 1
gene 8 3 5 -0.38474148478945747 1
gene 9 3 6 0.5977157754895347 1
gene 10 5 4 -0.2614219225926482 1
genomeend

genomestart 213
node 1 1
node 2 1
node 3 1
node 4 2
node 5 2
node 6 2
node 7 3
gene 1 1 4 0.33978373779686355 1
gene 2 1 5 0.4606870195564813 1
gene 3 1 6 0.7357153494870579 1
gene 4 2 4 0.17489033947304633 1
gene 5 2 5 0.6399326981620083 1
gene 6 2 6 0.6280662821457725 1
gene 7 3 4 0.7001464304658307 1
gene 8 3 5 -0.42087466022662123 1
gene 9 3 6 0.51992109487828 1
gene 11 2 7 1.0 1
gene 12 7 4 0.17489033947304633 1
genomeend

genomestart 214
node 1 1
node 2 1
node 3 1
node 4 2
node 5 2
node 6 2
node 7 3
gene 1 1 4 0.33978373779686355 1
gene 2 1 5 0.34123978123191556 1
gene 3 1 6 0.7357153494870579 1
gene 4 2 4 0.17489033947304633 0
gene 5 2 5 0.10736091611297782 1
gene 6 2 6 -0.35002966867849183 1
gene 7 3 4 0.7001464304658307 1
gene 8 3 5 -0.031823184535674454 1
gene 9 3 6 -0.4065430411679588 1
gene 11 2 7 1.0 1
gene 12 7 4 0.17489033947304633 1
genomeend

genomestart 215
node 1 1
node 2 1
node 3 1
node 4 2
node 5 2
node 6 2
node 8 3
gene 1 1 4 -0.9586200782235715 1
gene 2 1 5 0.38471167746709733 1
gene 3 1 6 0.5927725737211567 0
gene 4 2 4 -0.2449866969026281 1
gene 5 2 5 0.9160297529452458 1
gene 6 2 6 -0.4190472366455037 1
gene 7 3 4 0.8926176287235232 1
gene 8 3 5 -0.2604672526568599 1
gene 9 3 6 -0.6449975981178371 1
gene 19 1 8 1.0 1
gene 20 8 6 0.5927725737211567 1
genomeend

genomestart 216
node 1 1
node 2 1
node 3 1
node 4 2
node 5 2
node 6 2
node 7 3
gene 1 1 4 0.33978373779686355 1
gene 2 1 5 0.4606870195564813 1
gene 3 1 6 0.7357153494870579 1
gene 4 2 4 0.17489033947304633 1
gene 5 2 5 0.10736091611297782 1
gene 6 2 6 0.6280662821457725 1
gene 7 3 4 0.7001464304658307 1
gene 8 3 5 -0.5469179272215251 1
gene 9 3 6 0.18943453554269607 1
gene 11 2 7 1.0 1
gene 12 7 4 0.17489033947304633 1
genomeend

genomestart 217
node 1 1
node 2 1
node 3 1
node 4 2
node 5 2
node 6 2
node 7 3
gene 1 1 4 0.33978373779686355 1
gene 2 1 5 0.4606870195564813 1
gene 3 1 6 0.7357153494870579 1
gene 4 2 4 0.17489033947304633 0
gene 5 2 5 0.10736091611297782 1
gene 6 2 6 0.394305738865672 1
gene 7 3 4 0.7001464304658307 1
gene 8 3 5 -0.031823184535674454 1
gene 9 3 6 -0.4065430411679588 1
gene 11 2 7 1.0 1
gene 12 7 4 0.17489033947304633 1
genomeend

genomestart 218
node 1 1
node 2 1
node 3 1
node 4 2
node 5 2
node 6 2
gene 1 1 4 0.9750679739898003 1
gene 2 1 5 0.2533614776571457 1
gene 3 1 6 -0.05538382266974895 1
gene 4 2 4 0.9569354801823041 0
gene 5 2 5 0.6399326981620083 1
gene 6 2 6 0.394305738865672 1
gene 7 3 4 0.5882361128773104 1
gene 8 3 5 -0.031823184535674454 1
gene 9 3 6 0.51992109487828 1
genomeend

genomestart 219
node 1 1
node 2 1
node 3 1
node 4 2
node 5 2
node 6 2
gene 1 1 4 0.551805291492318 1
gene 2 1 5 0.5563210646702058 1
gene 3 1 6 0.9253820940988219 1
gene 4 2 4 -0.9089319788701964 1
gene 5 2 5 0.489277585777976 1
gene 6 2 6 0.394305738865672 1
gene 7 3 4 -0.9383121477658879 1
gene 8 3 5 0.4206782933475929 1
gene 9 3 6 -0.5455850660538577 1
genomeend

genomestart 220
node 1 1
node 2 1
node 3 1
node 4 2
node 5 2
node 6 2
gene 1 1 4 0.8373177125056425 1
gene 2 1 5 -0.11194267705612237 1
gene 3 1 6 -0.5479881777669509 1
gene 4 2 4 -0.6209400283346805 1
gene 5 2 5 -0.08290400088945138 1
gene 6 2 6 0.44611741133505656 1
gene 7 3 4 0.7985214848179363 1
gene 8 3 5 0.5495200610323506 1
gene 9 3 6 0.7854666951496656 1
genomeend

genomestart 221
node 1 1
node 2 1
node 3 1
node 4 2
node 5 2
node 6 2
gene 1 1 4 -0.9160509991501734 1
gene 2 1 5 0.5563210646702058 1
gene 3 1 6 -0.2187499347876738 1
gene 4 2 4 -0.5751630356024642 1
gene 5 2 5 0.489277585777976 1
gene 6 2 6 0.5456026247348439 1
gene 7 3 4 -0.8329152620577768 1
gene 8 3 5 0.8975146653317715 1
gene 9 3 6 -0.5455850660538577 1
genomeend

genomestart 222
node 1 1
node 2 1
node 3 1
node 4 2
node 5 2
node 6 2
gene 1 1 4 -0.9586200782235715 1
gene 2 1 5 0.38471167746709733 1
gene 3 1 6 0.5927725737211567 1
gene 4 2 4 0.018769871652986603 1
gene 5 2 5 0.6399326981620083 1
gene 6 2 6 -0.4190472366455037 1
gene 7 3 4 0.7001464304658307 1
gene 8 3 5 -0.2604672526568599 1
gene 9 3 6 -0.6449975981178371 1
genomeend

genomestart 223
node 1 1
node 2 1
node 3 1
node 4 2
node 5 2
node 6 2
gene 1 1 4 0.8587637334478907 1
gene 2 1 5 0.5563210646702058 1
gene 3 1 6 0.9253820940988219 1
gene 4 2 4 -0.9089319788701964 1
gene 5 2 5 0.489277585777976 1
gene 6 2 6 -0.35002966867849183 1
gene 7 3 4 -0.9383121477658879 1
gene 8 3 5 0.4206782933475929 1
gene 9 3 6 -0.5455850660538577 1
genomeend

genomestart 224
node 1 1
node 2 1
node 3 1
node 4 2
node 5 2
node 6 2
gene 1 1 4 0.551805291492318 1
gene 2 1 5 0.5563210646702058 1
gene 3 1 6 0.9253820940988219 1
gene 4 2 4 -0.9089319788701964 1
gene 5 2 5 0.489277585777976 1
gene 6 2 6 -0.35002966867849183 1
gene 7 3 4 -0.9383121477658879 1
gene 8 3 5 0.4206782933475929 1
gene 9 3 6 0.51992109487828 1
genomeend

genomestart 225
node 1 1
node 2 1
node 3 1
node 4 2
node 5 2
node 6 2
gene 1 1 4 -0.1447129624190947 1
gene 2 1 5 0.796183975787236 1
gene 3 1 6 -0.4692735649758166 1
gene 4 2 4 -0.8929711795876786 1
gene 5 2 5 0.489277585777976 1
gene 6 2 6 0.6280662821457725 1
gene 7 3 4 -0.8329152620577768 1
gene 8 3 5 -0.1062806459502782 1
gene 9 3 6 -0.09205661717954994 1
genomeend

genomestart 226
node 1 1
node 2 1
node 3 1
node 4 2
node 5 2
node 6 2
gene 1 1 4 0.8587637334478907 1
gene 2 1 5 0.2533614776571457 1
gene 3 1 6 -0.17546240792110557 1
gene 4 2 4 0.9569354801823041 1
gene 5 2 5 0.7417517893563046 1
gene 6 2 6 0.7019572054070999 1
gene 7 3 4 0.5882361128773104 1
gene 8 3 5 -0.42087466022662123 1
gene 9 3 6 0.51992109487828 1
genomeend

genomestart 227
node 1 1
node 2 1
node 3 1
node 4 2
node 5 2
node 6 2
node 7 3
gene 1 1 4 0.33978373779686355 1
gene 2 1 5 0.2533614776571457 1
gene 3 1 6 0.7357153494870579 1
gene 4 2 4 0.17489033947304633 1
gene 5 2 5 0.10736091611297782 1
gene 6 2 6 0.44611741133505656 1
gene 7 3 4 0.7001464304658307 1
gene 8 3 5 -0.031823184535674454 1
gene 9 3 6 0.18943453554269607 1
gene 11 2 7 1.0 1
gene 12 7 4 0.17489033947304633 1
genomeend

genomestart 228
node 1 1
node 2 1
node 3 1
node 4 2
node 5 2
node 6 2
node 7 3
gene 1 1 4 0.33978373779686355 1
gene 2 1 5 0.4606870195564813 1
gene 3 1 6 0.7357153494870579 1
gene 4 2 4 -0.2449866969026281 1
gene 5 2 5 0.6399326981620083 1
gene 6 2 6 0.6280662821457725 1
gene 7 3 4 0.7001464304658307 1
gene 8 3 5 -0.031823184535674454 1
gene 9 3 6 0.9132442283825133 1
gene 11 2 7 1.0 1
gene 12 7 4 0.17489033947304633 1
genomeend

genomestart 229
node 1 1
node 2 1
node 3 1
node 4 2
node 5 2
node 6 2
gene 1 1 4 0.01230213274350811 1
gene 2 1 5 0.4314537949233471 1
gene 3 1 6 -0.17546240792110557 1
gene 4 2 4 -0.3442188236030048 1
gene 5 2 5 -0.34338956296922307 1
gene 6 2 6 -0.6015692930855473 1
gene 7 3 4 -0.5684875860325027 1
gene 8 3 5 0.43402621312921497 1
gene 9 3 6 0.06843494102812653 1
genomeend

genomestart 230
node 1 1
node 2 1
node 3 1
node 4 2
node 5 2
node 6 2
gene 1 1 4 -0.1459487905509247 1
gene 2 1 5 -0.47263077867021885 1
gene 3 1 6 0.30993885444026537 1
gene 4 2 4 0.08352366269685796 1
gene 5 2 5 -0.6048040643624346 1
gene 6 2 6 -0.7998779939912255 1
gene 7 3 4 -0.7212926672508722 1
gene 8 3 5 0.37109230166277307 1
gene 9 3 6 0.4201436084849617 1
genomeend

genomestart 231
node 1 1
node 2 1
node 3 1
node 4 2
node 5 2
node 6 2
node 7 3
gene 1 1 4 0.33978373779686355 1
gene 2 1 5 0.4606870195564813 1
gene 3 1 6 0.7357153494870579 1
gene 4 2 4 0.17489033947304633 0
gene 5 2 5 0.10736091611297782 1
gene 6 2 6 0.394305738865672 1
gene 7 3 4 0.7001464304658307 1
gene 8 3 5 -0.031823184535674454 1
gene 9 3 6 0.18943453554269607 1
gene 11 2 7 1.0 1
gene 12 7 4 0.17489033947304633 1
genomeend

genomestart 232
node 1 1
node 2 1
node 3 1
node 4 2
node 5 2
node 6 2
gene 1 1 4 0.18272789696656688 1
gene 2 1 5 0.7846130793410658 1
gene 3 1 6 0.3622586234718421 1
gene 4 2 4 0.929805253023538 1
gene 5 2 5 0.6805344438106166 1
gene 6 2 6 0.520377974808193 1
gene 7 3 4 -0.0644576785047063 1
gene 8 3 5 0.6113032014070702 1
gene 9 3 6 -0.09205661717954994 1
gene 10 5 4 0.5392433713568449 1
genomeend

genomestart 233
node 1 1
node 2 1
node 3 1
node 4 2
node 5 2
node 6 2
gene 1 1 4 0.9750679739898003 1
gene 2 1 5 0.9925501331091825 1
gene 3 1 6 -0.05538382266974895 1
gene 4 2 4 -0.016899358018526933 1
gene 5 2 5 0.6399326981620083 1
gene 6 2 6 0.7019572054070999 1
gene 7 3 4 -0.10544947377766412 1
gene 8 3 5 -0.5469179272215251 1
gene 9 3 6 -0.9333673246194526 1
gene 10 5 4 -0.2614219225926482 1
genomeend

genomestart 234
node 1 1
node 2 1
node 3 1
node 4 2
node 5 2
node 6 2
gene 1 1 4 -0.9382528732359728 1
gene 2 1 5 0.062012359852885 1
gene 3 1 6 -0.3997835563262463 1
gene 4 2 4 -0.14668940001731123 1
gene 5 2 5 -0.34313416089477067 1
gene 6 2 6 0.05875788904474044 1
gene 7 3 4 -0.8981075883827855 1
gene 8 3 5 -0.5347904930117919 1
gene 9 3 6 0.8142051584472195 1
genomeend

genomestart 235
node 1 1
node 2 1
node 3 1
node 4 2
node 5 2
node 6 2
gene 1 1 4 -0.23245023319063318 1
gene 2 1 5 -0.8209417219821912 1
gene 3 1 6 -0.9569870635943603 1
gene 4 2 4 0.10457533182491907 1
gene 5 2 5 -0.33555705841816896 1
gene 6 2 6 0.22985538997643462 1
gene 7 3 4 0.5199006435623257 1
gene 8 3 5 -0.5835655547408971 1
gene 9 3 6 0.51992109487828 1
genomeend

genomestart 236
node 1 1
node 2 1
node 3 1
node 4 2
node 5 2
node 6 2
gene 1 1 4 0.8587637334478907 1
gene 2 1 5 0.2533614776571457 1
gene 3 1 6 -0.4692735649758166 1
gene 4 2 4 0.9569354801823041 1
gene 5 2 5 0.7417517893563046 1
gene 6 2 6 0.44611741133505656 1
gene 7 3 4 0.5882361128773104 1
gene 8 3 5 -0.42087466022662123 1
gene 9 3 6 0.51992109487828 1
genomeend

genomestart 237
node 1 1
node 2 1
node 3 1
node 4 2
node 5 2
node 6 2
gene 1 1 4 0.8587637334478907 1
gene 2 1 5 0.34123978123191556 1
gene 3 1 6 -0.17546240792110557 1
gene 4 2 4 0.444292337876505 1
gene 5 2 5 0.1156065760593119 1
gene 6 2 6 -0.35002966867849183 1
gene 7 3 4 0.04380091200779568 1
gene 8 3 5 -0.42087466022662123 1
gene 9 3 6 0.9132442283825133 1
genomeend

genomestart 238
node 1 1
node 2 1
node 3 1
node 4 2
node 5 2
node 6 2
node 7 3
gene 1 1 4 0.33978373779686355 1
gene 2 1 5 0.4606870195564813 1
gene 3 1 6 -0.4692735649758166 1
gene 4 2 4 0.17489033947304633 0
gene 5 2 5 0.10736091611297782 1
gene 6 2 6 0.6280662821457725 1
gene 7 3 4 0.7001464304658307 1
gene 8 3 5 -0.031823184535674454 1
gene 9 3 6 -0.09205661717954994 1
gene 11 2 7 1.0 1
gene 12 7 4 0.17489033947304633 1
gene 17 5 5 -0.9632604088053163 1
genomeend

genomestart 239
node 1 1
node 2 1
node 3 1
node 4 2
node 5 2
node 6 2
gene 1 1 4 -0.1447129624190947 1
gene 2 1 5 0.9925501331091825 1
gene 3 1 6 -0.17546240792110557 1
gene 4 2 4 -0.2449866969026281 0
gene 5 2 5 0.1156065760593119 1
gene 6 2 6 -0.35002966867849183 1
gene 7 3 4 0.04380091200779568 1
gene 8 3 5 0.6271265778259132 1
gene 9 3 6 -0.4065430411679588 1
genomeend

genomestart 240
node 1 1
node 2 1
node 3 1
node 4 2
node 5 2
node 6 2
gene 1 1 4 0.9750679739898003 1
gene 2 1 5 0.2533614776571457 1
gene 3 1 6 -0.05538382266974895 1
gene 4 2 4 0.9569354801823041 1
gene 5 2 5 0.6399326981620083 1
gene 6 2 6 0.394305738865672 1
gene 7 3 4 -0.10544947377766412 1
gene 8 3 5 -0.42087466022662123 1
gene 9 3 6 0.51992109487828 1
genomeend

genomestart 241
node 1 1
node 2 1
node 3 1
node 4 2
node 5 2
node 6 2
node 7 3
gene 1 1 4 0.3776516206709273 1
gene 2 1 5 -0.9188190953660911 1
gene 3 1 6 0.7357153494870579 1
gene 4 2 4 -0.08141253316872299 1
gene 5 2 5 0.15877034697505288 1
gene 6 2 6 0.09849606231776797 1
gene 7 3 4 0.2888785270632461 1
gene 8 3 5 0.9621043056554731 1
gene 9 3 6 0.47456187501522873 1
gene 11 2 7 1.0 1
gene 12 7 4 -0.4401860184856411 1
genomeend

genomestart 242
node 1 1
node 2 1
node 3 1
node 4 2
node 5 2
node 6 2
gene 1 1 4 0.8587637334478907 1
gene 2 1 5 0.9925501331091825 1
gene 3 1 6 0.7357153494870579 1
gene 4 2 4 0.17489033947304633 1
gene 5 2 5 0.6399326981620083 1
gene 6 2 6 0.7019572054070999 1
gene 7 3 4 0.7001464304658307 1
gene 8 3 5 -0.031823184535674454 1
gene 9 3 6 0.18943453554269607 1
genomeend

genomestart 243
node 1 1
node 2 1
node 3 1
node 4 2
node 5 2
node 6 2
node 7 3
gene 1 1 4 0.33978373779686355 1
gene 2 1 5 0.4606870195564813 1
gene 3 1 6 -0.05538382266974895 1
gene 4 2 4 0.17489033947304633 0
gene 5 2 5 0.6399326981620083 1
gene 6 2 6 0.394305738865672 1
gene 7 3 4 0.7001464304658307 1
gene 8 3 5 -0.031823184535674454 1
gene 9 3 6 -0.4065430411679588 1
gene 11 2 7 1.0 1
gene 12 7 4 0.17489033947304633 1
genomeend

genomestart 244
node 1 1
node 2 1
node 3 1
node 4 2
node 5 2
node 6 2
gene 1 1 4 -0.7967394301129073 1
gene 2 1 5 -0.01109255966438627 1
gene 3 1 6 0.16538802998133673 1
gene 4 2 4 0.9839432654382632 1
gene 5 2 5 0.4480631424658261 1
gene 6 2 6 0.8172196855668659 1
gene 7 3 4 0.8834001199212785 1
gene 8 3 5 -0.749751013861978 1
gene 9 3 6 0.5752672841466341 1
genomeend

genomestart 245
node 1 1
node 2 1
node 3 1
node 4 2
node 5 2
node 6 2
node 7 3
gene 1 1 4 0.33978373779686355 1
gene 2 1 5 0.4606870195564813 1
gene 3 1 6 0.23800775389892848 1
gene 4 2 4 0.17489033947304633 1
gene 5 2 5 0.10736091611297782 1
gene 6 2 6 0.6280662821457725 1
gene 7 3 4 0.7001464304658307 1
gene 8 3 5 -0.031823184535674454 1
gene 9 3 6 0.18943453554269607 1
gene 11 2 7 1.0 1
gene 12 7 4 0.17489033947304633 1
genomeend

genomestart 246
node 1 1
node 2 1
node 3 1
node 4 2
node 5 2
node 6 2
gene 1 1 4 0.8587637334478907 1
gene 2 1 5 -0.11194267705612237 1
gene 3 1 6 -0.5479881777669509 1
gene 4 2 4 -0.6209400283346805 1
gene 5 2 5 0.1156065760593119 1
gene 6 2 6 -0.35002966867849183 1
gene 7 3 4 0.04380091200779568 1
gene 8 3 5 0.6271265778259132 1
gene 9 3 6 -0.4065430411679588 1
genomeend

genomestart 247
node 1 1
node 2 1
node 3 1
node 4 2
node 5 2
node 6 2
gene 1 1 4 0.27320521546917964 1
gene 2 1 5 -0.43442673403530085 1
gene 3 1 6 0.09940506038376462 1
gene 4 2 4 0.2590618583339138 1
gene 5 2 5 -0.3349043865881033 1
gene 6 2 6 -0.20407922335163575 1
gene 7 3 4 -0.28240152284387476 1
gene 8 3 5 0.5350651826975132 1
gene 9 3 6 -0.20297483213204803 1
genomeend

genomestart 248
node 1 1
node 2 1
node 3 1
node 4 2
node 5 2
node 6 2
gene 1 1 4 -0.1447129624190947 1
gene 2 1 5 0.34123978123191556 1
gene 3 1 6 0.7357153494870579 1
gene 4 2 4 -0.2449866969026281 0
gene 5 2 5 0.1156065760593119 1
gene 6 2 6 -0.35002966867849183 1
gene 7 3 4 0.04380091200779568 1
gene 8 3 5 0.6271265778259132 1
gene 9 3 6 -0.4065430411679588 1
gene 10 5 4 0.6483823050958457 1
genomeend

genomestart 249
node 1 1
node 2 1
node 3 1
node 4 2
node 5 2
node 6 2
gene 1 1 4 -0.1447129624190947 1
gene 2 1 5 0.2533614776571457 1
gene 3 1 6 -0.0019546962286829395 1
gene 4 2 4 0.9569354801823041 1
gene 5 2 5 0.7417517893563046 1
gene 6 2 6 0.44611741133505656 1
gene 7 3 4 0.5882361128773104 1
gene 8 3 5 -0.42087466022662123 1
gene 9 3 6 0.51992109487828 1
genomeend

genomestart 250
node 1 1
node 2 1
node 3 1
node 4 2
node 5 2
node 6 2
node 7 3
gene 1 1 4 0.8587637334478907 1
gene 2 1 5 0.4606870195564813 1
gene 3 1 6 0.7357153494870579 1
gene 4 2 4 0.17489033947304633 0
gene 5 2 5 0.10736091611297782 1
gene 6 2 6 0.394305738865672 1
gene 7 3 4 0.7001464304658307 1
gene 8 3 5 -0.031823184535674454 1
gene 9 3 6 -0.4065430411679588 1
gene 11 2 7 1.0 1
gene 12 7 4 0.17489033947304633 1
genomeend

genomestart 251
node 1 1
node 2 1
node 3 1
node 4 2
node 5 2
node 6 2
node 8 3
gene 1 1 4 0.8172768330294637 1
gene 2 1 5 -0.15103386870506175 1
gene 3 1 6 -0.09911942083391245 0
gene 4 2 4 -0.35093852175731544 1
gene 5 2 5 -0.4677993781050094 1
gene 6 2 6 -0.02300165551361877 1
gene 7 3 4 0.829975569385997 1
gene 8 3 5 0.980849834213225 1
gene 9 3 6 -0.18232870348554187 1
gene 19 1 8 0.8654303482800176 1
gene 20 8 6 0.6485196721199834 1
genomeend

genomestart 252
node 1 1
node 2 1
node 3 1
node 4 2
node 5 2
node 6 2
gene 1 1 4 0.8373177125056425 1
gene 2 1 5 -0.11194267705612237 1
gene 3 1 6 -0.4692735649758166 1
gene 4 2 4 -0.6209400283346805 1
gene 5 2 5 -0.08290400088945138 1
gene 6 2 6 0.44611741133505656 1
gene 7 3 4 0.7985214848179363 1
gene 8 3 5 0.5495200610323506 1
gene 9 3 6 0.7854666951496656 1
genomeend

genomestart 253
node 1 1
node 2 1
node 3 1
node 4 2
node 5 2
node 6 2
node 7 3
gene 1 1 4 -0.23796413682645268 1
gene 2 1 5 -0.5214054213073386 1
gene 3 1 6 0.5411609099258967 1
gene 4 2 4 -0.26491129847016903 1
gene 5 2 5 -0.9489988062278014 1
gene 6 2 6 -0.7398792911168067 1
gene 7 3 4 -0.43003500014904517 1
gene 8 3 5 0.6690503487893809 1
gene 9 3 6 0.8637318506739629 1
gene 11 2 7 -0.7194281879501474 1
gene 12 7 4 0.9056482668367136 1
genomeend

genomestart 254
node 1 1
node 2 1
node 3 1
node 4 2
node 5 2
node 6 2
gene 1 1 4 0.9750679739898003 1
gene 2 1 5 0.9925501331091825 1
gene 3 1 6 0.7357153494870579 1
gene 4 2 4 0.17489033947304633 1
gene 5 2 5 0.6399326981620083 1
gene 6 2 6 0.7019572054070999 1
gene 7 3 4 -0.10544947377766412 1
gene 8 3 5 -0.5469179272215251 1
gene 9 3 6 -0.9333673246194526 1
gene 10 5 4 -0.2614219225926482 1
genomeend

genomestart 255
node 1 1
node 2 1
node 3 1
node 4 2
node 5 2
node 6 2
node 7 3
gene 1 1 4 0.33978373779686355 1
gene 2 1 5 0.4606870195564813 1
gene 3 1 6 0.7357153494870579 1
gene 4 2 4 -0.2449866969026281 0
gene 5 2 5 0.6399326981620083 1
gene 6 2 6 0.6280662821457725 1
gene 7 3 4 0.7001464304658307 1
gene 8 3 5 -0.031823184535674454 1
gene 9 3 6 0.9132442283825133 1
gene 11 2 7 1.0 1
gene 12 7 4 0.17489033947304633 1
genomeend

genomestart 256
node 1 1
node 2 1
node 3 1
node 4 2
node 5 2
node 6 2
node 8 3
gene 1 1 4 -0.2769660082450106 1
gene 2 1 5 0.5574158124046371 1
gene 3 1 6 -0.6065802101110473 0
gene 4 2 4 0.1954922691813693 1
gene 5 2 5 -0.16203773523511056 1
gene 6 2 6 0.8837233539854832 1
gene 7 3 4 -0.7191762688827512 1
gene 8 3 5 -0.452157758923161 1
gene 9 3 6 0.46602767238538245 1
gene 19 1 8 0.5658616297624753 1
gene 20 8 6 0.18930871003381056 1
genomeend

genomestart 257
node 1 1
node 2 1
node 3 1
node 4 2
node 5 2
node 6 2
gene 1 1 4 0.9750679739898003 1
gene 2 1 5 0.9925501331091825 1
gene 3 1 6 0.7357153494870579 1
gene 4 2 4 0.17489033947304633 0
gene 5 2 5 -0.08290400088945138 1
gene 6 2 6 0.44611741133505656 1
gene 7 3 4 -0.10544947377766412 1
gene 8 3 5 -0.5469179272215251 1
gene 9 3 6 -0.9333673246194526 1
gene 10 5 4 -0.2614219225926482 1
genomeend

genomestart 258
node 1 1
node 2 1
node 3 1
node 4 2
node 5 2
node 6 2
gene 1 1 4 0.9750679739898003 1
gene 2 1 5 0.2533614776571457 1
gene 3 1 6 -0.05538382266974895 1
gene 4 2 4 0.9569354801823041 0
gene 5 2 5 0.6399326981620083 1
gene 6 2 6 0.394305738865672 1
gene 7 3 4 -0.10544947377766412 1
gene 8 3 5 -0.42087466022662123 1
gene 9 3 6 0.51992109487828 1
genomeend

genomestart 259
node 1 1
node 2 1
node 3 1
node 4 2
node 5 2
node 6 2
gene 1 1 4 0.33978373779686355 1
gene 2 1 5 0.5563210646702058 1
gene 3 1 6 0.7357153494870579 1
gene 4 2 4 -0.5751630356024642 1
gene 5 2 5 0.489277585777976 1
gene 6 2 6 0.5456026247348439 1
gene 7 3 4 -0.8329152620577768 1
gene 8 3 5 0.8975146653317715 1
gene 9 3 6 -0.5455850660538577 1
genomeend

genomestart 260
node 1 1
node 2 1
node 3 1
node 4 2
node 5 2
node 6 2
gene 1 1 4 0.5134116689475872 1
gene 2 1 5 -0.08472757714323653 1
gene 3 1 6 0.7178704291247264 1
gene 4 2 4 0.6728936610959312 0
gene 5 2 5 0.9941058743027723 1
gene 6 2 6 0.394305738865672 1
gene 7 3 4 0.7001464304658307 1
gene 8 3 5 -0.19592647543147435 1
gene 9 3 6 0.18943453554269607 1
genomeend

genomestart 261
node 1 1
node 2 1
node 3 1
node 4 2
node 5 2
node 6 2
gene 1 1 4 0.9750679739898003 1
gene 2 1 5 0.2533614776571457 1
gene 3 1 6 -0.05538382266974895 1
gene 4 2 4 0.9569354801823041 0
gene 5 2 5 0.6399326981620083 1
gene 6 2 6 0.394305738865672 1
gene 7 3 4 0.5882361128773104 1
gene 8 3 5 -0.42087466022662123 1
gene 9 3 6 0.51992109487828 1
genomeend

genomestart 262
node 1 1
node 2 1
node 3 1
node 4 2
node 5 2
node 6 2
gene 1 1 4 -0.9160509991501734 1
gene 2 1 5 0.5011476567549521 1
gene 3 1 6 -0.6096882188627892 1
gene 4 2 4 -0.5751630356024642 1
gene 5 2 5 0.21385358700856505 1
gene 6 2 6 0.7240281670960227 1
gene 7 3 4 -0.9852847460035972 1
gene 8 3 5 0.39680191000206944 1
gene 9 3 6 0.5746420176565127 1
genomeend

genomestart 263
node 1 1
node 2 1
node 3 1
node 4 2
node 5 2
node 6 2
gene 1 1 4 -0.9586200782235715 1
gene 2 1 5 0.7846130793410658 1
gene 3 1 6 0.3622586234718421 1
gene 4 2 4 0.018769871652986603 1
gene 5 2 5 0.6399326981620083 1
gene 6 2 6 0.520377974808193 1
gene 7 3 4 -0.0644576785047063 1
gene 8 3 5 0.6113032014070702 1
gene 9 3 6 -0.09205661717954994 1
gene 10 5 4 0.5392433713568449 1
gene 18 4 6 0.0916422327414167 1
genomeend

genomestart 264
node 1 1
node 2 1
node 3 1
node 4 2
node 5 2
node 6 2
node 9 3
gene 1 1 4 -0.3767334495954823 1
gene 2 1 5 -0.6214343595910737 1
gene 3 1 6 0.9413833847282838 1
gene 4 2 4 -0.38605306628892966 1
gene 5 2 5 0.5917992605533016 0
gene 6 2 6 0.9760715312502948 1
gene 7 3 4 0.8176341596233222 1
gene 8 3 5 -0.7171378297988831 1
gene 9 3 6 -0.2684589368649474 1
gene 21 2 9 1.0 1
gene 22 9 5 0.5917992605533016 1
genomeend

genomestart 265
node 1 1
node 2 1
node 3 1
node 4 2
node 5 2
node 6 2
gene 1 1 4 -0.9160509991501734 1
gene 2 1 5 0.5563210646702058 1
gene 3 1 6 0.7357153494870579 1
gene 4 2 4 -0.5751630356024642 1
gene 5 2 5 0.489277585777976 1
gene 6 2 6 0.7019572054070999 1
gene 7 3 4 -0.10544947377766412 1
gene 8 3 5 0.8975146653317715 1
gene 9 3 6 -0.9333673246194526 1
genomeend

genomestart 266
node 1 1
node 2 1
node 3 1
node 4 2
node 5 2
node 6 2
gene 1 1 4 -0.1447129624190947 1
gene 2 1 5 0.2533614776571457 1
gene 3 1 6 -0.0019546962286829395 1
gene 4 2 4 0.9569354801823041 1
gene 5 2 5 0.7417517893563046 1
gene 6 2 6 0.520377974808193 1
gene 7 3 4 0.5882361128773104 1
gene 8 3 5 -0.42087466022662123 1
gene 9 3 6 0.51992109487828 1
genomeend

genomestart 267
node 1 1
node 2 1
node 3 1
node 4 2
node 5 2
node 6 2
gene 1 1 4 0.39352497510961637 1
gene 2 1 5 0.2894287131265735 1
gene 3 1 6 0.06113644740985125 1
gene 4 2 4 0.4992121303194016 1
gene 5 2 5 0.661200907116469 1
gene 6 2 6 0.8583954432190224 1
gene 7 3 4 0.17716701411444657 1
gene 8 3 5 -0.5830539800002994 1
gene 9 3 6 -0.38838997984120505 1
genomeend

genomestart 268
node 1 1
node 2 1
node 3 1
node 4 2
node 5 2
node 6 2
gene 1 1 4 -0.1447129624190947 1
gene 2 1 5 0.2533614776571457 1
gene 3 1 6 -0.0019546962286829395 1
gene 4 2 4 0.9569354801823041 1
gene 5 2 5 0.7417517893563046 1
gene 6 2 6 0.6280662821457725 1
gene 7 3 4 0.5882361128773104 1
gene 8 3 5 -0.42087466022662123 1
gene 9 3 6 0.51992109487828 1
genomeend

genomestart 269
node 1 1
node 2 1
node 3 1
node 4 2
node 5 2
node 6 2
node 10 3
gene 1 1 4 0.5134116689475872 0
gene 2 1 5 -0.08472757714323653 1
gene 3 1 6 0.7178704291247264 1
gene 4 2 4 0.6728936610959312 1
gene 5 2 5 0.9941058743027723 1
gene 6 2 6 0.15615039144154308 1
gene 7 3 4 0.7001464304658307 1
gene 8 3 5 -0.1062806459502782 1
gene 9 3 6 0.18943453554269607 1
gene 23 1 10 1.0 1
gene 24 10 4 0.5134116689475872 1
genomeend

genomestart 270
node 1 1
node 2 1
node 3 1
node 4 2
node 5 2
node 6 2
gene 1 1 4 -0.1447129624190947 1
gene 2 1 5 0.9925501331091825 1
gene 3 1 6 0.5927725737211567 1
gene 4 2 4 -0.2449866969026281 0
gene 5 2 5 0.1156065760593119 1
gene 6 2 6 -0.35002966867849183 1
gene 7 3 4 0.7001464304658307 1
gene 8 3 5 0.6271265778259132 1
gene 9 3 6 -0.6449975981178371 1
genomeend

genomestart 271
node 1 1
node 2 1
node 3 1
node 4 2
node 5 2
node 6 2
gene 1 1 4 -0.9586200782235715 1
gene 2 1 5 0.38127067155674144 1
gene 3 1 6 0.5927725737211567 1
gene 4 2 4 0.018769871652986603 1
gene 5 2 5 0.6399326981620083 1
gene 6 2 6 -0.4190472366455037 1
gene 7 3 4 0.7001464304658307 1
gene 8 3 5 -0.2604672526568599 1
gene 9 3 6 -0.6449975981178371 1
genomeend

genomestart 272
node 1 1
node 2 1
node 3 1
node 4 2
node 5 2
node 6 2
gene 1 1 4 0.8373177125056425 1
gene 2 1 5 -0.11194267705612237 1
gene 3 1 6 -0.5479881777669509 0
gene 4 2 4 -0.6209400283346805 1
gene 5 2 5 -0.08290400088945138 1
gene 6 2 6 -0.4190472366455037 1
gene 7 3 4 0.7985214848179363 1
gene 8 3 5 0.5495200610323506 1
gene 9 3 6 0.7854666951496656 1
genomeend

genomestart 273
node 1 1
node 2 1
node 3 1
node 4 2
node 5 2
node 6 2
gene 1 1 4 0.18272789696656688 1
gene 2 1 5 0.7846130793410658 1
gene 3 1 6 0.3622586234718421 1
gene 4 2 4 0.929805253023538 1
gene 5 2 5 0.6805344438106166 1
gene 6 2 6 0.520377974808193 1
gene 7 3 4 0.7001464304658307 1
gene 8 3 5 0.6113032014070702 1
gene 9 3 6 -0.09205661717954994 1
gene 10 5 4 0.5392433713568449 1
genomeend

genomestart 274
node 1 1
node 2 1
node 3 1
node 4 2
node 5 2
node 6 2
gene 1 1 4 0.18272789696656688 1
gene 2 1 5 0.2533614776571457 1
gene 3 1 6 -0.0019546962286829395 1
gene 4 2 4 0.9569354801823041 1
gene 5 2 5 0.7417517893563046 1
gene 6 2 6 0.520377974808193 1
gene 7 3 4 0.5882361128773104 1
gene 8 3 5 0.6113032014070702 1
gene 9 3 6 0.51992109487828 1
genomeend

genomestart 275
node 1 1
node 2 1
node 3 1
node 4 2
node 5 2
node 6 2
gene 1 1 4 0.2864456107367277 1
gene 2 1 5 -0.7897023445372245 1
gene 3 1 6 -0.7613402220180177 1
gene 4 2 4 -0.11708699518752952 1
gene 5 2 5 0.9729291685816142 1
gene 6 2 6 0.3882039992427564 1
gene 7 3 4 -0.5307880895591414 1
gene 8 3 5 0.4591716903840941 1
gene 9 3 6 0.2856038284967445 1
genomeend

genomestart 276
node 1 1
node 2 1
node 3 1
node 4 2
node 5 2
node 6 2
gene 1 1 4 0.8373177125056425 1
gene 2 1 5 0.5563210646702058 1
gene 3 1 6 -0.5479881777669509 1
gene 4 2 4 -0.6209400283346805 1
gene 5 2 5 -0.08290400088945138 1
gene 6 2 6 0.44611741133505656 1
gene 7 3 4 0.7985214848179363 1
gene 8 3 5 0.8975146653317715 1
gene 9 3 6 0.7854666951496656 1
genomeend

genomestart 277
node 1 1
node 2 1
node 3 1
node 4 2
node 5 2
node 6 2
gene 1 1 4 0.18272789696656688 1
gene 2 1 5 0.7846130793410658 1
gene 3 1 6 0.3622586234718421 1
gene 4 2 4 -0.6209400283346805 1
gene 5 2 5 0.1156065760593119 1
gene 6 2 6 0.520377974808193 1
gene 7 3 4 -0.0644576785047063 1
gene 8 3 5 0.6271265778259132 1
gene 9 3 6 -0.09205661717954994 1
gene 10 5 4 0.5392433713568449 1
genomeend

genomestart 278
node 1 1
node 2 1
node 3 1
node 4 2
node 5 2
node 6 2
gene 1 1 4 0.5260798435359123 1
gene 2 1 5 -0.6558802755998204 1
gene 3 1 6 0.8377096034247907 1
gene 4 2 4 -0.9598697071225647 1
gene 5 2 5 -0.16449509944675833 1
gene 6 2 6 -0.7742406992326134 1
gene 7 3 4 0.7406257072844032 1
gene 8 3 5 -0.739181748090385 1
gene 9 3 6 -0.16088445899207982 1
gene 10 5 4 -0.2733460902417201 1
genomeend

genomestart 279
node 1 1
node 2 1
node 3 1
node 4 2
node 5 2
node 6 2
gene 1 1 4 0.8587637334478907 1
gene 2 1 5 0.2533614776571457 1
gene 3 1 6 -0.4692735649758166 1
gene 4 2 4 0.9569354801823041 0
gene 5 2 5 0.7417517893563046 1
gene 6 2 6 0.44611741133505656 1
gene 7 3 4 0.5882361128773104 1
gene 8 3 5 -0.42087466022662123 1
gene 9 3 6 0.51992109487828 1
gene 25 4 4 0.9237567271336098 1
genomeend

genomestart 280
node 1 1
node 2 1
node 3 1
node 4 2
node 5 2
node 6 2
gene 1 1 4 -0.1447129624190947 1
gene 2 1 5 0.2533614776571457 1
gene 3 1 6 -0.0019546962286829395 1
gene 4 2 4 0.9569354801823041 1
gene 5 2 5 0.7417517893563046 1
gene 6 2 6 0.44611741133505656 1
gene 7 3 4 0.5882361128773104 1
gene 8 3 5 -0.42087466022662123 1
gene 9 3 6 0.51992109487828 1
genomeend

genomestart 281
node 1 1
node 2 1
node 3 1
node 4 2
node 5 2
node 6 2
gene 1 1 4 0.8373177125056425 1
gene 2 1 5 -0.11194267705612237 1
gene 3 1 6 -0.5479881777669509 1
gene 4 2 4 -0.6209400283346805 1
gene 5 2 5 -0.08290400088945138 1
gene 6 2 6 0.44611741133505656 1
gene 7 3 4 0.7985214848179363 1
gene 8 3 5 0.5495200610323506 1
gene 9 3 6 0.7854666951496656 1
genomeend

genomestart 282
node 1 1
node 2 1
node 3 1
node 4 2
node 5 2
node 6 2
gene 1 1 4 -0.9160509991501734 1
gene 2 1 5 0.5563210646702058 1
gene 3 1 6 0.7357153494870579 1
gene 4 2 4 0.17489033947304633 0
gene 5 2 5 0.489277585777976 1
gene 6 2 6 0.5456026247348439 1
gene 7 3 4 -0.8329152620577768 1
gene 8 3 5 0.8975146653317715 1
gene 9 3 6 -0.5455850660538577 1
genomeend

genomestart 283
node 1 1
node 2 1
node 3 1
node 4 2
node 5 2
node 6 2
gene 1 1 4 0.8587637334478907 1
gene 2 1 5 0.2533614776571457 1
gene 3 1 6 -0.0019546962286829395 1
gene 4 2 4 0.9569354801823041 1
gene 5 2 5 0.7417517893563046 1
gene 6 2 6 0.44611741133505656 1
gene 7 3 4 0.04380091200779568 1
gene 8 3 5 -0.42087466022662123 1
gene 9 3 6 -0.4065430411679588 1
genomeend

genomestart 284
node 1 1
node 2 1
node 3 1
node 4 2
node 5 2
node 6 2
gene 1 1 4 0.8587637334478907 1
gene 2 1 5 0.2533614776571457 1
gene 3 1 6 -0.4692735649758166 1
gene 4 2 4 0.9569354801823041 0
gene 5 2 5 0.7417517893563046 1
gene 6 2 6 -0.35002966867849183 1
gene 7 3 4 0.5882361128773104 1
gene 8 3 5 -0.42087466022662123 1
gene 9 3 6 0.51992109487828 1
genomeend

genomestart 285
node 1 1
node 2 1
node 3 1
node 4 2
node 5 2
node 6 2
gene 1 1 4 0.025239936247278272 1
gene 2 1 5 -0.5789101684536453 1
gene 3 1 6 0.5835217620622307 1
gene 4 2 4 -0.21191272960284346 1
gene 5 2 5 -0.7081483350188507 1
gene 6 2 6 -0.7522988643195677 1
gene 7 3 4 -0.7729558491119671 1
gene 8 3 5 -0.9873236775312481 1
gene 9 3 6 0.2506419606408431 1
gene 10 5 4 0.8817861442763952 1
genomeend

genomestart 286
node 1 1
node 2 1
node 3 1
node 4 2
node 5 2
node 6 2
gene 1 1 4 -0.5748198584057711 1
gene 2 1 5 -0.180920914264049 1
gene 3 1 6 0.5513515531749504 1
gene 4 2 4 0.14533333717342822 1
gene 5 2 5 0.15527672607694443 1
gene 6 2 6 0.14173279308036046 1
gene 7 3 4 0.6256343849618119 1
gene 8 3 5 0.6407000871263874 1
gene 9 3 6 -0.03502273479627671 1
genomeend

genomestart 287
node 1 1
node 2 1
node 3 1
node 4 2
node 5 2
node 6 2
gene 1 1 4 -0.1447129624190947 1
gene 2 1 5 0.9925501331091825 1
gene 3 1 6 -0.17546240792110557 1
gene 4 2 4 -0.2449866969026281 0
gene 5 2 5 0.1156065760593119 1
gene 6 2 6 0.6280662821457725 1
gene 7 3 4 0.04380091200779568 1
gene 8 3 5 -0.031823184535674454 1
gene 9 3 6 0.18943453554269607 1
genomeend

genomestart 288
node 1 1
node 2 1
node 3 1
node 4 2
node 5 2
node 6 2
gene 1 1 4 0.8587637334478907 1
gene 2 1 5 0.796183975787236 1
gene 3 1 6 -0.4692735649758166 1
gene 4 2 4 -0.6209400283346805 1
gene 5 2 5 0.489277585777976 1
gene 6 2 6 0.6280662821457725 1
gene 7 3 4 -0.8329152620577768 1
gene 8 3 5 0.6271265778259132 1
gene 9 3 6 -0.4065430411679588 1
genomeend

genomestart 289
node 1 1
node 2 1
node 3 1
node 4 2
node 5 2
node 6 2
gene 1 1 4 0.551805291492318 1
gene 2 1 5 0.5563210646702058 1
gene 3 1 6 -0.0019546962286829395 1
gene 4 2 4 0.9569354801823041 1
gene 5 2 5 0.7417517893563046 1
gene 6 2 6 -0.35002966867849183 1
gene 7 3 4 0.5882361128773104 1
gene 8 3 5 -0.42087466022662123 1
gene 9 3 6 -0.5455850660538577 1
genomeend

genomestart 290
node 1 1
node 2 1
node 3 1
node 4 2
node 5 2
node 6 2
node 7 3
gene 1 1 4 0.8587637334478907 1
gene 2 1 5 0.4606870195564813 1
gene 3 1 6 0.7357153494870579 1
gene 4 2 4 0.17489033947304633 0
gene 5 2 5 0.10736091611297782 1
gene 6 2 6 0.394305738865672 1
gene 7 3 4 0.7001464304658307 1
gene 8 3 5 -0.031823184535674454 1
gene 9 3 6 -0.4065430411679588 1
gene 11 2 7 1.0 1
gene 12 7 4 0.17489033947304633 1
genomeend

genomestart 291
node 1 1
node 2 1
node 3 1
node 4 2
node 5 2
node 6 2
node 7 3
gene 1 1 4 0.33978373779686355 1
gene 2 1 5 0.2533614776571457 1
gene 3 1 6 0.7357153494870579 0
gene 4 2 4 0.17489033947304633 1
gene 5 2 5 0.10736091611297782 1
gene 6 2 6 0.44611741133505656 1
gene 7 3 4 0.7001464304658307 1
gene 8 3 5 -0.031823184535674454 1
gene 9 3 6 0.18943453554269607 1
gene 11 2 7 1.0 1
gene 12 7 4 0.17489033947304633 1
genomeend

genomestart 292
node 1 1
node 2 1
node 3 1
node 4 2
node 5 2
node 6 2
gene 1 1 4 0.551805291492318 1
gene 2 1 5 0.5563210646702058 1
gene 3 1 6 -0.4692735649758166 1
gene 4 2 4 -0.8929711795876786 1
gene 5 2 5 0.10736091611297782 1
gene 6 2 6 -0.35002966867849183 1
gene 7 3 4 -0.9383121477658879 1
gene 8 3 5 0.4206782933475929 1
gene 9 3 6 -0.5455850660538577 1
gene 14 5 6 0.013784954725890697 1
genomeend

genomestart 293
node 1 1
node 2 1
node 3 1
node 4 2
node 5 2
node 6 2
gene 1 1 4 -0.9160509991501734 1
gene 2 1 5 0.5563210646702058 1
gene 3 1 6 -0.2187499347876738 1
gene 4 2 4 -0.2449866969026281 1
gene 5 2 5 0.489277585777976 1
gene 6 2 6 0.5456026247348439 1
gene 7 3 4 -0.8329152620577768 1
gene 8 3 5 0.8975146653317715 1
gene 9 3 6 -0.5455850660538577 1
genomeend

genomestart 294
node 1 1
node 2 1
node 3 1
node 4 2
node 5 2
node 6 2
gene 1 1 4 0.8373177125056425 1
gene 2 1 5 -0.11194267705612237 1
gene 3 1 6 -0.5479881777669509 1
gene 4 2 4 -0.6209400283346805 1
gene 5 2 5 -0.08290400088945138 1
gene 6 2 6 0.44611741133505656 1
gene 7 3 4 0.04380091200779568 1
gene 8 3 5 0.5495200610323506 1
gene 9 3 6 0.7854666951496656 1
genomeend

genomestart 295
node 1 1
node 2 1
node 3 1
node 4 2
node 5 2
node 6 2
gene 1 1 4 0.5134116689475872 1
gene 2 1 5 0.2533614776571457 1
gene 3 1 6 -0.0019546962286829395 1
gene 4 2 4 0.9569354801823041 1
gene 5 2 5 0.9941058743027723 1
gene 6 2 6 0.44611741133505656 1
gene 7 3 4 0.5882361128773104 1
gene 8 3 5 -0.42087466022662123 1
gene 9 3 6 0.51992109487828 1
genomeend

genomestart 296
node 1 1
node 2 1
node 3 1
node 4 2
node 5 2
node 6 2
gene 1 1 4 0.4457587692669793 1
gene 2 1 5 -0.06869149604217628 1
gene 3 1 6 0.2924913725675008 1
gene 4 2 4 0.7820718636337306 0
gene 5 2 5 -0.660921646076818 1
gene 6 2 6 0.7765488533029775 1
gene 7 3 4 -0.48421778378455615 1
gene 8 3 5 -0.031823184535674454 1
gene 9 3 6 0.2238257823850378 1
genomeend

genomestart 297
node 1 1
node 2 1
node 3 1
node 4 2
node 5 2
node 6 2
gene 1 1 4 0.9750679739898003 1
gene 2 1 5 0.2533614776571457 1
gene 3 1 6 -0.05538382266974895 1
gene 4 2 4 0.9569354801823041 0
gene 5 2 5 0.6399326981620083 1
gene 6 2 6 0.5456026247348439 1
gene 7 3 4 0.5882361128773104 1
gene 8 3 5 -0.031823184535674454 1
gene 9 3 6 0.51992109487828 1
genomeend

genomestart 298
node 1 1
node 2 1
node 3 1
node 4 2
node 5 2
node 6 2
node 7 3
gene 1 1 4 0.9750679739898003 1
gene 2 1 5 0.2533614776571457 1
gene 3 1 6 0.7357153494870579 1
gene 4 2 4 0.17489033947304633 0
gene 5 2 5 0.10736091611297782 1
gene 6 2 6 0.44611741133505656 1
gene 7 3 4 0.7001464304658307 1
gene 8 3 5 -0.031823184535674454 1
gene 9 3 6 0.18943453554269607 1
gene 11 2 7 1.0 1
gene 12 7 4 0.17489033947304633 1
genomeend

genomestart 299
node 1 1
node 2 1
node 3 1
node 4 2
node 5 2
node 6 2
node 7 3
gene 1 1 4 0.33978373779686355 1
gene 2 1 5 0.4606870195564813 1
gene 3 1 6 -0.0019546962286829395 1
gene 4 2 4 0.17489033947304633 1
gene 5 2 5 0.7417517893563046 1
gene 6 2 6 0.44611741133505656 1
gene 7 3 4 0.7001464304658307 1
gene 8 3 5 -0.031823184535674454 1
gene 9 3 6 0.18943453554269607 1
gene 11 2 7 1.0 1
gene 12 7 4 0.17489033947304633 1
genomeend

genomestart 300
node 1 1
node 2 1
node 3 1
node 4 2
node 5 2
node 6 2
gene 1 1 4 0.9750679739898003 1
gene 2 1 5 0.2533614776571457 1
gene 3 1 6 -0.0019546962286829395 1
gene 4 2 4 0.9569354801823041 0
gene 5 2 5 0.6399326981620083 1
gene 6 2 6 0.44611741133505656 1
gene 7 3 4 0.04380091200779568 1
gene 8 3 5 -0.42087466022662123 1
gene 9 3 6 -0.4065430411679588 1
genomeend

genomestart 301
node 1 1
node 2 1
node 3 1
node 4 2
node 5 2
node 6 2
gene 1 1 4 0.9750679739898003 1
gene 2 1 5 0.9925501331091825 1
gene 3 1 6 0.7357153494870579 1
gene 4 2 4 0.17489033947304633 0
gene 5 2 5 -0.08290400088945138 1
gene 6 2 6 0.44611741133505656 1
gene 7 3 4 -0.10544947377766412 1
gene 8 3 5 -0.5469179272215251 1
gene 9 3 6 -0.9333673246194526 1
gene 10 5 4 -0.2614219225926482 1
genomeend

genomestart 302
node 1 1
node 2 1
node 3 1
node 4 2
node 5 2
node 6 2
node 7 3
gene 1 1 4 0.9750679739898003 1
gene 2 1 5 0.2533614776571457 1
gene 3 1 6 0.7357153494870579 1
gene 4 2 4 0.17489033947304633 0
gene 5 2 5 0.10736091611297782 1
gene 6 2 6 0.44611741133505656 1
gene 7 3 4 0.7001464304658307 1
gene 8 3 5 -0.031823184535674454 1
gene 9 3 6 0.18943453554269607 1
gene 11 2 7 1.0 1
gene 12 7 4 0.17489033947304633 1
genomeend

genomestart 303
node 1 1
node 2 1
node 3 1
node 4 2
node 5 2
node 6 2
node 7 3
node 11 3
gene 1 1 4 0.33978373779686355 1
gene 2 1 5 0.9925501331091825 1
gene 3 1 6 0.7357153494870579 1
gene 4 2 4 0.17489033947304633 1
gene 5 2 5 0.6399326981620083 1
gene 6 2 6 0.44611741133505656 0
gene 7 3 4 0.7001464304658307 1
gene 8 3 5 -0.031823184535674454 1
gene 9 3 6 0.18943453554269607 1
gene 11 2 7 1.0 1
gene 12 7 4 0.17489033947304633 1
gene 26 2 11 1.0 1
gene 27 11 6 0.44611741133505656 1
genomeend

genomestart 304
node 1 1
node 2 1
node 3 1
node 4 2
node 5 2
node 6 2
gene 1 1 4 0.9750679739898003 1
gene 2 1 5 0.33758362479579773 1
gene 3 1 6 -0.4466485332711251 1
gene 4 2 4 0.018769871652986603 0
gene 5 2 5 -0.6661837064093521 1
gene 6 2 6 -0.6054358610726681 1
gene 7 3 4 -0.533191565047952 1
gene 8 3 5 -0.031823184535674454 1
gene 9 3 6 -0.1850546128873234 1
gene 10 5 4 0.8112087209104114 1
gene 18 4 6 -0.7386218197958601 1
genomeend

genomestart 305
node 1 1
node 2 1
node 3 1
node 4 2
node 5 2
node 6 2
gene 1 1 4 0.256262446315479 1
gene 2 1 5 0.44346569646147216 1
gene 3 1 6 0.3622586234718421 1
gene 4 2 4 0.7850487309159636 1
gene 5 2 5 0.574092738406868 1
gene 6 2 6 -0.9343393893840455 1
gene 7 3 4 -0.05842222068259295 1
gene 8 3 5 -0.29909453536589836 1
gene 9 3 6 0.7018542920680811 1
gene 10 5 4 -0.8480571087678505 1
gene 18 4 6 0.047781300999189424 1
genomeend

genomestart 306
node 1 1
node 2 1
node 3 1
node 4 2
node 5 2
node 6 2
node 7 3
gene 1 1 4 0.33978373779686355 1
gene 2 1 5 0.2533614776571457 1
gene 3 1 6 0.7357153494870579 0
gene 4 2 4 0.17489033947304633 1
gene 5 2 5 0.10736091611297782 1
gene 6 2 6 0.44611741133505656 1
gene 7 3 4 0.7001464304658307 1
gene 8 3 5 -0.031823184535674454 1
gene 9 3 6 0.18943453554269607 1
gene 11 2 7 1.0 1
gene 12 7 4 0.17489033947304633 1
genomeend

genomestart 307
node 1 1
node 2 1
node 3 1
node 4 2
node 5 2
node 6 2
gene 1 1 4 0.9750679739898003 1
gene 2 1 5 0.9925501331091825 1
gene 3 1 6 0.7357153494870579 1
gene 4 2 4 0.17489033947304633 1
gene 5 2 5 0.6399326981620083 1
gene 6 2 6 0.7019572054070999 1
gene 7 3 4 -0.10544947377766412 1
gene 8 3 5 -0.031823184535674454 1
gene 9 3 6 -0.9333673246194526 1
gene 10 5 4 -0.2614219225926482 1
genomeend

genomestart 308
node 1 1
node 2 1
node 3 1
node 4 2
node 5 2
node 6 2
node 7 3
gene 1 1 4 -0.410179263637102 1
gene 2 1 5 0.9703816039532133 1
gene 3 1 6 0.8675360215405287 1
gene 4 2 4 0.4683907565436286 1
gene 5 2 5 -0.6884180247258256 1
gene 6 2 6 -0.30968269209370825 1
